<?xml version="1.0"?>
<opencv_storage>
<cascade>
  <stageType>BOOST</stageType>
  <featureType>HAAR</featureType>
  <height>27</height>
  <width>48</width>
  <stageParams>
    <boostType>GAB</boostType>
    <minHitRate>9.9500000476837158e-01</minHitRate>
    <maxFalseAlarm>5.0000000000000000e-01</maxFalseAlarm>
    <weightTrimRate>9.4999999999999996e-01</weightTrimRate>
    <maxDepth>1</maxDepth>
    <maxWeakCount>100</maxWeakCount></stageParams>
  <featureParams>
    <maxCatCount>0</maxCatCount>
    <featSize>1</featSize>
    <mode>ALL</mode></featureParams>
  <stageNum>10</stageNum>
  <stages>
    <!-- stage 0 -->
    <_>
      <maxWeakCount>7</maxWeakCount>
      <stageThreshold>-3.9011442661285400e-01</stageThreshold>
      <weakClassifiers>
        <_>
          <internalNodes>
            0 -1 66 6.5507751423865557e-04</internalNodes>
          <leafValues>
            -3.2075470685958862e-01 6.5656566619873047e-01</leafValues></_>
        <_>
          <internalNodes>
            0 -1 58 2.7310061268508434e-03</internalNodes>
          <leafValues>
            -2.9576599597930908e-01 6.8516069650650024e-01</leafValues></_>
        <_>
          <internalNodes>
            0 -1 65 8.2476128591224551e-04</internalNodes>
          <leafValues>
            -2.6198530197143555e-01 7.5139153003692627e-01</leafValues></_>
        <_>
          <internalNodes>
            0 -1 73 1.1025026440620422e-02</internalNodes>
          <leafValues>
            -3.1231227517127991e-01 6.2082034349441528e-01</leafValues></_>
        <_>
          <internalNodes>
            0 -1 27 -4.3712928891181946e-03</internalNodes>
          <leafValues>
            5.7979935407638550e-01 -3.7036812305450439e-01</leafValues></_>
        <_>
          <internalNodes>
            0 -1 63 -5.0409534014761448e-04</internalNodes>
          <leafValues>
            4.6705645322799683e-01 -4.7129252552986145e-01</leafValues></_>
        <_>
          <internalNodes>
            0 -1 47 -7.7991768717765808e-02</internalNodes>
          <leafValues>
            8.0822575092315674e-01 -2.2911708056926727e-01</leafValues></_></weakClassifiers></_>
    <!-- stage 1 -->
    <_>
      <maxWeakCount>10</maxWeakCount>
      <stageThreshold>-6.1445248126983643e-01</stageThreshold>
      <weakClassifiers>
        <_>
          <internalNodes>
            0 -1 2 -3.2523434609174728e-02</internalNodes>
          <leafValues>
            -3.0890053510665894e-01 6.0191845893859863e-01</leafValues></_>
        <_>
          <internalNodes>
            0 -1 49 -3.0184485018253326e-02</internalNodes>
          <leafValues>
            8.1177514791488647e-01 -2.0317411422729492e-01</leafValues></_>
        <_>
          <internalNodes>
            0 -1 46 -8.8292229920625687e-03</internalNodes>
          <leafValues>
            8.8216423988342285e-01 -1.3953506946563721e-01</leafValues></_>
        <_>
          <internalNodes>
            0 -1 15 -1.4095236547291279e-03</internalNodes>
          <leafValues>
            -5.6245619058609009e-01 3.2562729716300964e-01</leafValues></_>
        <_>
          <internalNodes>
            0 -1 78 1.2031703954562545e-03</internalNodes>
          <leafValues>
            -3.2452017068862915e-01 5.5739426612854004e-01</leafValues></_>
        <_>
          <internalNodes>
            0 -1 29 8.3948746323585510e-03</internalNodes>
          <leafValues>
            -2.1878041326999664e-01 7.5628030300140381e-01</leafValues></_>
        <_>
          <internalNodes>
            0 -1 41 -4.2693209252320230e-04</internalNodes>
          <leafValues>
            5.5569207668304443e-01 -2.9039132595062256e-01</leafValues></_>
        <_>
          <internalNodes>
            0 -1 31 -1.4357034116983414e-02</internalNodes>
          <leafValues>
            5.3064388036727905e-01 -3.2581186294555664e-01</leafValues></_>
        <_>
          <internalNodes>
            0 -1 55 -1.8252166919410229e-03</internalNodes>
          <leafValues>
            6.8161618709564209e-01 -2.2915647923946381e-01</leafValues></_>
        <_>
          <internalNodes>
            0 -1 21 -1.6049346595536917e-04</internalNodes>
          <leafValues>
            -7.1786707639694214e-01 2.4373441934585571e-01</leafValues></_></weakClassifiers></_>
    <!-- stage 2 -->
    <_>
      <maxWeakCount>10</maxWeakCount>
      <stageThreshold>-7.2386324405670166e-01</stageThreshold>
      <weakClassifiers>
        <_>
          <internalNodes>
            0 -1 9 1.7393534653820097e-04</internalNodes>
          <leafValues>
            4.4177448749542236e-01 -7.0149254798889160e-01</leafValues></_>
        <_>
          <internalNodes>
            0 -1 75 5.6507058441638947e-02</internalNodes>
          <leafValues>
            -2.1020199358463287e-01 7.7952247858047485e-01</leafValues></_>
        <_>
          <internalNodes>
            0 -1 5 -6.2413718551397324e-03</internalNodes>
          <leafValues>
            4.6350952982902527e-01 -3.2605269551277161e-01</leafValues></_>
        <_>
          <internalNodes>
            0 -1 68 -1.1813519522547722e-03</internalNodes>
          <leafValues>
            6.4775443077087402e-01 -2.3848782479763031e-01</leafValues></_>
        <_>
          <internalNodes>
            0 -1 38 -3.4174472093582153e-02</internalNodes>
          <leafValues>
            5.6530141830444336e-01 -2.0775519311428070e-01</leafValues></_>
        <_>
          <internalNodes>
            0 -1 80 2.3621592670679092e-02</internalNodes>
          <leafValues>
            -2.5359204411506653e-01 6.4368212223052979e-01</leafValues></_>
        <_>
          <internalNodes>
            0 -1 34 -2.3266361677087843e-04</internalNodes>
          <leafValues>
            -5.2567875385284424e-01 3.2488280534744263e-01</leafValues></_>
        <_>
          <internalNodes>
            0 -1 51 -5.5923905223608017e-02</internalNodes>
          <leafValues>
            8.9919835329055786e-01 -2.0028798282146454e-01</leafValues></_>
        <_>
          <internalNodes>
            0 -1 84 1.0820322204381227e-03</internalNodes>
          <leafValues>
            2.3874336481094360e-01 -7.4150878190994263e-01</leafValues></_>
        <_>
          <internalNodes>
            0 -1 59 -3.2462719827890396e-03</internalNodes>
          <leafValues>
            5.5786722898483276e-01 -2.9288616776466370e-01</leafValues></_></weakClassifiers></_>
    <!-- stage 3 -->
    <_>
      <maxWeakCount>10</maxWeakCount>
      <stageThreshold>-8.7046837806701660e-01</stageThreshold>
      <weakClassifiers>
        <_>
          <internalNodes>
            0 -1 45 -1.5141141600906849e-02</internalNodes>
          <leafValues>
            -6.8000000715255737e-01 4.5590993762016296e-01</leafValues></_>
        <_>
          <internalNodes>
            0 -1 52 2.2101877257227898e-03</internalNodes>
          <leafValues>
            -3.4031856060028076e-01 5.0835072994232178e-01</leafValues></_>
        <_>
          <internalNodes>
            0 -1 39 -8.1066954880952835e-03</internalNodes>
          <leafValues>
            5.3731310367584229e-01 -3.3979079127311707e-01</leafValues></_>
        <_>
          <internalNodes>
            0 -1 24 -2.4670152924954891e-05</internalNodes>
          <leafValues>
            4.7902131080627441e-01 -3.2733726501464844e-01</leafValues></_>
        <_>
          <internalNodes>
            0 -1 13 1.7248683143407106e-03</internalNodes>
          <leafValues>
            1.9983455538749695e-01 -8.0166560411453247e-01</leafValues></_>
        <_>
          <internalNodes>
            0 -1 88 -5.9048384428024292e-03</internalNodes>
          <leafValues>
            -4.7198429703712463e-01 3.5021412372589111e-01</leafValues></_>
        <_>
          <internalNodes>
            0 -1 16 -9.7909383475780487e-03</internalNodes>
          <leafValues>
            6.4394748210906982e-01 -2.9160815477371216e-01</leafValues></_>
        <_>
          <internalNodes>
            0 -1 86 2.6900586817646399e-05</internalNodes>
          <leafValues>
            -3.1456521153450012e-01 4.5307704806327820e-01</leafValues></_>
        <_>
          <internalNodes>
            0 -1 32 2.3795128072379157e-05</internalNodes>
          <leafValues>
            -3.2109105587005615e-01 4.9076509475708008e-01</leafValues></_>
        <_>
          <internalNodes>
            0 -1 61 -1.2894975952804089e-04</internalNodes>
          <leafValues>
            -6.1673760414123535e-01 3.0798181891441345e-01</leafValues></_></weakClassifiers></_>
    <!-- stage 4 -->
    <_>
      <maxWeakCount>11</maxWeakCount>
      <stageThreshold>-3.8953039050102234e-01</stageThreshold>
      <weakClassifiers>
        <_>
          <internalNodes>
            0 -1 67 -3.9011086337268353e-03</internalNodes>
          <leafValues>
            8.0590718984603882e-01 2.6954177301377058e-03</leafValues></_>
        <_>
          <internalNodes>
            0 -1 85 2.2848365915706381e-05</internalNodes>
          <leafValues>
            -2.7842104434967041e-01 5.4180091619491577e-01</leafValues></_>
        <_>
          <internalNodes>
            0 -1 81 1.8047988414764404e-02</internalNodes>
          <leafValues>
            -2.8998783230781555e-01 4.9917638301849365e-01</leafValues></_>
        <_>
          <internalNodes>
            0 -1 28 -1.1998647823929787e-02</internalNodes>
          <leafValues>
            7.7583295106887817e-01 -1.9857233762741089e-01</leafValues></_>
        <_>
          <internalNodes>
            0 -1 7 -1.7731694970279932e-03</internalNodes>
          <leafValues>
            4.7015464305877686e-01 -2.9253911972045898e-01</leafValues></_>
        <_>
          <internalNodes>
            0 -1 18 2.8972461586818099e-04</internalNodes>
          <leafValues>
            1.4389514923095703e-01 -8.8952499628067017e-01</leafValues></_>
        <_>
          <internalNodes>
            0 -1 17 -2.4681305512785912e-04</internalNodes>
          <leafValues>
            -7.2304290533065796e-01 1.7050792276859283e-01</leafValues></_>
        <_>
          <internalNodes>
            0 -1 20 1.6791031230241060e-03</internalNodes>
          <leafValues>
            -2.8071790933609009e-01 5.7188111543655396e-01</leafValues></_>
        <_>
          <internalNodes>
            0 -1 6 -7.3297577910125256e-03</internalNodes>
          <leafValues>
            6.1496096849441528e-01 -3.1202861666679382e-01</leafValues></_>
        <_>
          <internalNodes>
            0 -1 37 3.2003536820411682e-02</internalNodes>
          <leafValues>
            -1.5898206830024719e-01 8.1514626741409302e-01</leafValues></_>
        <_>
          <internalNodes>
            0 -1 40 -4.6944194473326206e-03</internalNodes>
          <leafValues>
            4.4631290435791016e-01 -3.5675039887428284e-01</leafValues></_></weakClassifiers></_>
    <!-- stage 5 -->
    <_>
      <maxWeakCount>8</maxWeakCount>
      <stageThreshold>-6.2060308456420898e-01</stageThreshold>
      <weakClassifiers>
        <_>
          <internalNodes>
            0 -1 87 -3.6361109232529998e-04</internalNodes>
          <leafValues>
            -5.6756758689880371e-01 5.1307845115661621e-01</leafValues></_>
        <_>
          <internalNodes>
            0 -1 1 -1.5722680836915970e-03</internalNodes>
          <leafValues>
            -4.2979258298873901e-01 3.5826468467712402e-01</leafValues></_>
        <_>
          <internalNodes>
            0 -1 50 -1.2515329290181398e-03</internalNodes>
          <leafValues>
            4.5549815893173218e-01 -3.1291389465332031e-01</leafValues></_>
        <_>
          <internalNodes>
            0 -1 64 1.1793265584856272e-03</internalNodes>
          <leafValues>
            -4.9577251076698303e-01 2.7139917016029358e-01</leafValues></_>
        <_>
          <internalNodes>
            0 -1 33 -1.0252945125102997e-01</internalNodes>
          <leafValues>
            5.5722081661224365e-01 -2.4373760819435120e-01</leafValues></_>
        <_>
          <internalNodes>
            0 -1 77 1.4302589988801628e-04</internalNodes>
          <leafValues>
            1.7998406291007996e-01 -7.7527171373367310e-01</leafValues></_>
        <_>
          <internalNodes>
            0 -1 43 3.4493431448936462e-02</internalNodes>
          <leafValues>
            -1.8857385218143463e-01 8.3364307880401611e-01</leafValues></_>
        <_>
          <internalNodes>
            0 -1 83 3.8366527296602726e-03</internalNodes>
          <leafValues>
            -2.8222110867500305e-01 5.2432334423065186e-01</leafValues></_></weakClassifiers></_>
    <!-- stage 6 -->
    <_>
      <maxWeakCount>7</maxWeakCount>
      <stageThreshold>-6.1584627628326416e-01</stageThreshold>
      <weakClassifiers>
        <_>
          <internalNodes>
            0 -1 90 2.0221815793775022e-04</internalNodes>
          <leafValues>
            5.2727270126342773e-01 -6.1061948537826538e-01</leafValues></_>
        <_>
          <internalNodes>
            0 -1 35 1.7862538807094097e-03</internalNodes>
          <leafValues>
            3.4356108307838440e-01 -5.7550531625747681e-01</leafValues></_>
        <_>
          <internalNodes>
            0 -1 72 -4.0613621473312378e-02</internalNodes>
          <leafValues>
            7.8515487909317017e-01 -2.4386057257652283e-01</leafValues></_>
        <_>
          <internalNodes>
            0 -1 0 -1.7001373635139316e-04</internalNodes>
          <leafValues>
            -9.1753304004669189e-01 2.2156105935573578e-01</leafValues></_>
        <_>
          <internalNodes>
            0 -1 11 3.2291188836097717e-04</internalNodes>
          <leafValues>
            2.2536087036132813e-01 -6.7906218767166138e-01</leafValues></_>
        <_>
          <internalNodes>
            0 -1 82 1.1946549057029188e-04</internalNodes>
          <leafValues>
            2.0350274443626404e-01 -7.9923087358474731e-01</leafValues></_>
        <_>
          <internalNodes>
            0 -1 57 -1.6605120152235031e-02</internalNodes>
          <leafValues>
            -9.3427163362503052e-01 1.4907100796699524e-01</leafValues></_></weakClassifiers></_>
    <!-- stage 7 -->
    <_>
      <maxWeakCount>9</maxWeakCount>
      <stageThreshold>-5.0261104106903076e-01</stageThreshold>
      <weakClassifiers>
        <_>
          <internalNodes>
            0 -1 25 -1.6482835053466260e-04</internalNodes>
          <leafValues>
            -6.5853661298751831e-01 4.6768060326576233e-01</leafValues></_>
        <_>
          <internalNodes>
            0 -1 22 3.0011141672730446e-02</internalNodes>
          <leafValues>
            -1.7324371635913849e-01 7.8177839517593384e-01</leafValues></_>
        <_>
          <internalNodes>
            0 -1 89 -2.0762963686138391e-04</internalNodes>
          <leafValues>
            -8.1920349597930908e-01 2.0331004261970520e-01</leafValues></_>
        <_>
          <internalNodes>
            0 -1 30 -5.4136258549988270e-03</internalNodes>
          <leafValues>
            7.2257184982299805e-01 -2.1801641583442688e-01</leafValues></_>
        <_>
          <internalNodes>
            0 -1 10 3.7278242409229279e-02</internalNodes>
          <leafValues>
            2.1248145401477814e-01 -6.8571591377258301e-01</leafValues></_>
        <_>
          <internalNodes>
            0 -1 74 7.3684137314558029e-03</internalNodes>
          <leafValues>
            -3.7665396928787231e-01 3.3776068687438965e-01</leafValues></_>
        <_>
          <internalNodes>
            0 -1 62 2.5669144466519356e-02</internalNodes>
          <leafValues>
            -3.3318489789962769e-01 6.2829720973968506e-01</leafValues></_>
        <_>
          <internalNodes>
            0 -1 71 -3.8316287100315094e-03</internalNodes>
          <leafValues>
            4.7451937198638916e-01 -2.8665855526924133e-01</leafValues></_>
        <_>
          <internalNodes>
            0 -1 48 1.6241776756942272e-04</internalNodes>
          <leafValues>
            2.1440595388412476e-01 -7.1274024248123169e-01</leafValues></_></weakClassifiers></_>
    <!-- stage 8 -->
    <_>
      <maxWeakCount>12</maxWeakCount>
      <stageThreshold>-6.6174018383026123e-01</stageThreshold>
      <weakClassifiers>
        <_>
          <internalNodes>
            0 -1 3 2.0146426558494568e-01</internalNodes>
          <leafValues>
            4.2652329802513123e-01 -9.2000001668930054e-01</leafValues></_>
        <_>
          <internalNodes>
            0 -1 26 7.3147662915289402e-03</internalNodes>
          <leafValues>
            -2.1795950829982758e-01 6.9932699203491211e-01</leafValues></_>
        <_>
          <internalNodes>
            0 -1 60 1.4954064972698689e-03</internalNodes>
          <leafValues>
            -2.4333521723747253e-01 5.5307680368423462e-01</leafValues></_>
        <_>
          <internalNodes>
            0 -1 4 -7.3852017521858215e-02</internalNodes>
          <leafValues>
            5.1892405748367310e-01 -3.1092312932014465e-01</leafValues></_>
        <_>
          <internalNodes>
            0 -1 12 -6.7824521102011204e-04</internalNodes>
          <leafValues>
            -6.2842905521392822e-01 3.0762201547622681e-01</leafValues></_>
        <_>
          <internalNodes>
            0 -1 42 4.2606832721503451e-05</internalNodes>
          <leafValues>
            -4.2134317755699158e-01 3.2657790184020996e-01</leafValues></_>
        <_>
          <internalNodes>
            0 -1 69 1.5071042813360691e-02</internalNodes>
          <leafValues>
            -2.1921111643314362e-01 6.1891341209411621e-01</leafValues></_>
        <_>
          <internalNodes>
            0 -1 56 2.1762279793620110e-03</internalNodes>
          <leafValues>
            -2.2782582044601440e-01 6.0096180438995361e-01</leafValues></_>
        <_>
          <internalNodes>
            0 -1 23 -4.6182121150195599e-03</internalNodes>
          <leafValues>
            7.8473424911499023e-01 -1.4844761788845062e-01</leafValues></_>
        <_>
          <internalNodes>
            0 -1 79 -1.7434770416002721e-04</internalNodes>
          <leafValues>
            -4.8135560750961304e-01 3.1512466073036194e-01</leafValues></_>
        <_>
          <internalNodes>
            0 -1 76 8.9644603431224823e-03</internalNodes>
          <leafValues>
            -2.8798809647560120e-01 5.1202040910720825e-01</leafValues></_>
        <_>
          <internalNodes>
            0 -1 36 -2.5140142533928156e-03</internalNodes>
          <leafValues>
            5.5525952577590942e-01 -2.4225850403308868e-01</leafValues></_></weakClassifiers></_>
    <!-- stage 9 -->
    <_>
      <maxWeakCount>7</maxWeakCount>
      <stageThreshold>-3.6888372898101807e-01</stageThreshold>
      <weakClassifiers>
        <_>
          <internalNodes>
            0 -1 53 6.7293032770976424e-04</internalNodes>
          <leafValues>
            -5.2980132400989532e-02 6.7973858118057251e-01</leafValues></_>
        <_>
          <internalNodes>
            0 -1 14 -6.8047535605728626e-03</internalNodes>
          <leafValues>
            5.7065296173095703e-01 -1.8086323142051697e-01</leafValues></_>
        <_>
          <internalNodes>
            0 -1 44 -4.9469601362943649e-03</internalNodes>
          <leafValues>
            5.0228220224380493e-01 -2.5909495353698730e-01</leafValues></_>
        <_>
          <internalNodes>
            0 -1 54 3.0810418538749218e-03</internalNodes>
          <leafValues>
            -2.2868412733078003e-01 6.7520332336425781e-01</leafValues></_>
        <_>
          <internalNodes>
            0 -1 70 1.6649242490530014e-02</internalNodes>
          <leafValues>
            -1.9780804216861725e-01 7.1417593955993652e-01</leafValues></_>
        <_>
          <internalNodes>
            0 -1 19 -1.9269606564193964e-03</internalNodes>
          <leafValues>
            -7.6314502954483032e-01 2.3424917459487915e-01</leafValues></_>
        <_>
          <internalNodes>
            0 -1 8 5.4051978513598442e-03</internalNodes>
          <leafValues>
            -1.9920158386230469e-01 6.2746286392211914e-01</leafValues></_></weakClassifiers></_></stages>
  <features>
    <_>
      <rects>
        <_>
          0 0 2 2 -1.</_>
        <_>
          1 0 1 2 2.</_></rects>
      <tilted>0</tilted></_>
    <_>
      <rects>
        <_>
          0 1 13 4 -1.</_>
        <_>
          0 3 13 2 2.</_></rects>
      <tilted>0</tilted></_>
    <_>
      <rects>
        <_>
          0 1 44 15 -1.</_>
        <_>
          22 1 22 15 2.</_></rects>
      <tilted>0</tilted></_>
    <_>
      <rects>
        <_>
          0 1 48 26 -1.</_>
        <_>
          0 14 48 13 2.</_></rects>
      <tilted>0</tilted></_>
    <_>
      <rects>
        <_>
          0 4 42 18 -1.</_>
        <_>
          14 4 14 18 3.</_></rects>
      <tilted>0</tilted></_>
    <_>
      <rects>
        <_>
          0 10 16 17 -1.</_>
        <_>
          4 10 8 17 2.</_></rects>
      <tilted>0</tilted></_>
    <_>
      <rects>
        <_>
          0 15 24 4 -1.</_>
        <_>
          6 15 12 4 2.</_></rects>
      <tilted>0</tilted></_>
    <_>
      <rects>
        <_>
          0 18 21 6 -1.</_>
        <_>
          0 20 21 2 3.</_></rects>
      <tilted>0</tilted></_>
    <_>
      <rects>
        <_>
          0 19 32 1 -1.</_>
        <_>
          8 19 16 1 2.</_></rects>
      <tilted>0</tilted></_>
    <_>
      <rects>
        <_>
          0 24 2 3 -1.</_>
        <_>
          1 24 1 3 2.</_></rects>
      <tilted>0</tilted></_>
    <_>
      <rects>
        <_>
          0 24 46 3 -1.</_>
        <_>
          23 24 23 3 2.</_></rects>
      <tilted>0</tilted></_>
    <_>
      <rects>
        <_>
          0 25 6 2 -1.</_>
        <_>
          3 25 3 2 2.</_></rects>
      <tilted>0</tilted></_>
    <_>
      <rects>
        <_>
          1 0 14 1 -1.</_>
        <_>
          8 0 7 1 2.</_></rects>
      <tilted>0</tilted></_>
    <_>
      <rects>
        <_>
          1 1 6 3 -1.</_>
        <_>
          3 2 2 1 9.</_></rects>
      <tilted>0</tilted></_>
    <_>
      <rects>
        <_>
          1 1 8 16 -1.</_>
        <_>
          1 1 4 8 2.</_>
        <_>
          5 9 4 8 2.</_></rects>
      <tilted>0</tilted></_>
    <_>
      <rects>
        <_>
          1 2 14 2 -1.</_>
        <_>
          8 2 7 2 2.</_></rects>
      <tilted>0</tilted></_>
    <_>
      <rects>
        <_>
          1 6 8 21 -1.</_>
        <_>
          5 6 4 21 2.</_></rects>
      <tilted>0</tilted></_>
    <_>
      <rects>
        <_>
          2 0 3 4 -1.</_>
        <_>
          3 0 1 4 3.</_></rects>
      <tilted>0</tilted></_>
    <_>
      <rects>
        <_>
          2 2 3 3 -1.</_>
        <_>
          3 2 1 3 3.</_></rects>
      <tilted>0</tilted></_>
    <_>
      <rects>
        <_>
          3 3 5 2 -1.</_>
        <_>
          3 3 5 1 2.</_></rects>
      <tilted>1</tilted></_>
    <_>
      <rects>
        <_>
          3 15 8 3 -1.</_>
        <_>
          7 15 4 3 2.</_></rects>
      <tilted>0</tilted></_>
    <_>
      <rects>
        <_>
          4 0 4 1 -1.</_>
        <_>
          6 0 2 1 2.</_></rects>
      <tilted>0</tilted></_>
    <_>
      <rects>
        <_>
          4 1 36 6 -1.</_>
        <_>
          4 3 36 2 3.</_></rects>
      <tilted>0</tilted></_>
    <_>
      <rects>
        <_>
          4 7 6 10 -1.</_>
        <_>
          4 7 3 5 2.</_>
        <_>
          7 12 3 5 2.</_></rects>
      <tilted>0</tilted></_>
    <_>
      <rects>
        <_>
          4 12 2 1 -1.</_>
        <_>
          5 12 1 1 2.</_></rects>
      <tilted>0</tilted></_>
    <_>
      <rects>
        <_>
          4 26 3 1 -1.</_>
        <_>
          5 26 1 1 3.</_></rects>
      <tilted>0</tilted></_>
    <_>
      <rects>
        <_>
          5 18 12 6 -1.</_>
        <_>
          11 18 6 6 2.</_></rects>
      <tilted>0</tilted></_>
    <_>
      <rects>
        <_>
          6 0 23 6 -1.</_>
        <_>
          6 2 23 2 3.</_></rects>
      <tilted>0</tilted></_>
    <_>
      <rects>
        <_>
          6 0 29 4 -1.</_>
        <_>
          6 1 29 2 2.</_></rects>
      <tilted>0</tilted></_>
    <_>
      <rects>
        <_>
          6 2 14 8 -1.</_>
        <_>
          6 2 7 4 2.</_>
        <_>
          13 6 7 4 2.</_></rects>
      <tilted>0</tilted></_>
    <_>
      <rects>
        <_>
          6 2 33 3 -1.</_>
        <_>
          6 3 33 1 3.</_></rects>
      <tilted>0</tilted></_>
    <_>
      <rects>
        <_>
          6 7 33 5 -1.</_>
        <_>
          17 7 11 5 3.</_></rects>
      <tilted>0</tilted></_>
    <_>
      <rects>
        <_>
          6 16 2 1 -1.</_>
        <_>
          7 16 1 1 2.</_></rects>
      <tilted>0</tilted></_>
    <_>
      <rects>
        <_>
          7 2 41 20 -1.</_>
        <_>
          7 7 41 10 2.</_></rects>
      <tilted>0</tilted></_>
    <_>
      <rects>
        <_>
          8 0 2 3 -1.</_>
        <_>
          8 0 1 3 2.</_></rects>
      <tilted>1</tilted></_>
    <_>
      <rects>
        <_>
          8 0 2 6 -1.</_>
        <_>
          8 0 2 3 2.</_></rects>
      <tilted>1</tilted></_>
    <_>
      <rects>
        <_>
          8 22 9 4 -1.</_>
        <_>
          8 24 9 2 2.</_></rects>
      <tilted>0</tilted></_>
    <_>
      <rects>
        <_>
          9 1 12 9 -1.</_>
        <_>
          12 4 6 9 2.</_></rects>
      <tilted>1</tilted></_>
    <_>
      <rects>
        <_>
          10 3 18 15 -1.</_>
        <_>
          10 8 18 5 3.</_></rects>
      <tilted>0</tilted></_>
    <_>
      <rects>
        <_>
          10 4 14 12 -1.</_>
        <_>
          10 7 14 6 2.</_></rects>
      <tilted>0</tilted></_>
    <_>
      <rects>
        <_>
          11 3 6 15 -1.</_>
        <_>
          13 8 2 5 9.</_></rects>
      <tilted>0</tilted></_>
    <_>
      <rects>
        <_>
          11 9 3 6 -1.</_>
        <_>
          12 10 1 6 3.</_></rects>
      <tilted>1</tilted></_>
    <_>
      <rects>
        <_>
          12 3 4 12 -1.</_>
        <_>
          12 3 2 6 2.</_>
        <_>
          14 9 2 6 2.</_></rects>
      <tilted>0</tilted></_>
    <_>
      <rects>
        <_>
          13 2 10 12 -1.</_>
        <_>
          10 5 10 6 2.</_></rects>
      <tilted>1</tilted></_>
    <_>
      <rects>
        <_>
          13 5 11 4 -1.</_>
        <_>
          13 7 11 2 2.</_></rects>
      <tilted>0</tilted></_>
    <_>
      <rects>
        <_>
          14 0 26 1 -1.</_>
        <_>
          14 0 13 1 2.</_></rects>
      <tilted>1</tilted></_>
    <_>
      <rects>
        <_>
          14 1 26 3 -1.</_>
        <_>
          14 2 26 1 3.</_></rects>
      <tilted>0</tilted></_>
    <_>
      <rects>
        <_>
          14 2 18 12 -1.</_>
        <_>
          14 8 18 6 2.</_></rects>
      <tilted>0</tilted></_>
    <_>
      <rects>
        <_>
          14 21 4 1 -1.</_>
        <_>
          15 21 2 1 2.</_></rects>
      <tilted>0</tilted></_>
    <_>
      <rects>
        <_>
          16 19 32 6 -1.</_>
        <_>
          24 19 16 6 2.</_></rects>
      <tilted>0</tilted></_>
    <_>
      <rects>
        <_>
          17 0 6 2 -1.</_>
        <_>
          19 2 2 2 3.</_></rects>
      <tilted>1</tilted></_>
    <_>
      <rects>
        <_>
          18 4 16 6 -1.</_>
        <_>
          22 8 8 6 2.</_></rects>
      <tilted>1</tilted></_>
    <_>
      <rects>
        <_>
          19 0 3 10 -1.</_>
        <_>
          19 5 3 5 2.</_></rects>
      <tilted>0</tilted></_>
    <_>
      <rects>
        <_>
          20 0 1 10 -1.</_>
        <_>
          20 5 1 5 2.</_></rects>
      <tilted>0</tilted></_>
    <_>
      <rects>
        <_>
          20 5 7 4 -1.</_>
        <_>
          20 7 7 2 2.</_></rects>
      <tilted>0</tilted></_>
    <_>
      <rects>
        <_>
          20 6 17 3 -1.</_>
        <_>
          20 7 17 1 3.</_></rects>
      <tilted>0</tilted></_>
    <_>
      <rects>
        <_>
          20 23 25 3 -1.</_>
        <_>
          20 24 25 1 3.</_></rects>
      <tilted>0</tilted></_>
    <_>
      <rects>
        <_>
          21 0 26 1 -1.</_>
        <_>
          21 0 13 1 2.</_></rects>
      <tilted>1</tilted></_>
    <_>
      <rects>
        <_>
          21 1 10 4 -1.</_>
        <_>
          21 3 10 2 2.</_></rects>
      <tilted>0</tilted></_>
    <_>
      <rects>
        <_>
          21 17 2 8 -1.</_>
        <_>
          19 19 2 4 2.</_></rects>
      <tilted>1</tilted></_>
    <_>
      <rects>
        <_>
          22 2 9 2 -1.</_>
        <_>
          22 3 9 1 2.</_></rects>
      <tilted>0</tilted></_>
    <_>
      <rects>
        <_>
          23 1 4 1 -1.</_>
        <_>
          25 1 2 1 2.</_></rects>
      <tilted>0</tilted></_>
    <_>
      <rects>
        <_>
          23 6 24 17 -1.</_>
        <_>
          29 6 12 17 2.</_></rects>
      <tilted>0</tilted></_>
    <_>
      <rects>
        <_>
          23 9 16 2 -1.</_>
        <_>
          23 10 16 1 2.</_></rects>
      <tilted>0</tilted></_>
    <_>
      <rects>
        <_>
          23 22 24 5 -1.</_>
        <_>
          35 22 12 5 2.</_></rects>
      <tilted>0</tilted></_>
    <_>
      <rects>
        <_>
          24 23 9 3 -1.</_>
        <_>
          24 24 9 1 3.</_></rects>
      <tilted>0</tilted></_>
    <_>
      <rects>
        <_>
          24 23 24 4 -1.</_>
        <_>
          36 23 12 4 2.</_></rects>
      <tilted>0</tilted></_>
    <_>
      <rects>
        <_>
          25 2 18 4 -1.</_>
        <_>
          25 2 9 2 2.</_>
        <_>
          34 4 9 2 2.</_></rects>
      <tilted>0</tilted></_>
    <_>
      <rects>
        <_>
          26 0 1 8 -1.</_>
        <_>
          26 2 1 4 2.</_></rects>
      <tilted>0</tilted></_>
    <_>
      <rects>
        <_>
          27 9 9 9 -1.</_>
        <_>
          30 12 3 9 3.</_></rects>
      <tilted>1</tilted></_>
    <_>
      <rects>
        <_>
          27 12 20 8 -1.</_>
        <_>
          27 12 10 4 2.</_>
        <_>
          37 16 10 4 2.</_></rects>
      <tilted>0</tilted></_>
    <_>
      <rects>
        <_>
          27 17 21 3 -1.</_>
        <_>
          34 17 7 3 3.</_></rects>
      <tilted>0</tilted></_>
    <_>
      <rects>
        <_>
          29 0 6 20 -1.</_>
        <_>
          24 5 6 10 2.</_></rects>
      <tilted>1</tilted></_>
    <_>
      <rects>
        <_>
          29 12 14 14 -1.</_>
        <_>
          29 12 7 7 2.</_>
        <_>
          36 19 7 7 2.</_></rects>
      <tilted>0</tilted></_>
    <_>
      <rects>
        <_>
          29 21 18 5 -1.</_>
        <_>
          38 21 9 5 2.</_></rects>
      <tilted>0</tilted></_>
    <_>
      <rects>
        <_>
          30 1 18 24 -1.</_>
        <_>
          30 1 9 12 2.</_>
        <_>
          39 13 9 12 2.</_></rects>
      <tilted>0</tilted></_>
    <_>
      <rects>
        <_>
          32 0 16 18 -1.</_>
        <_>
          36 0 8 18 2.</_></rects>
      <tilted>0</tilted></_>
    <_>
      <rects>
        <_>
          32 1 4 1 -1.</_>
        <_>
          33 1 2 1 2.</_></rects>
      <tilted>0</tilted></_>
    <_>
      <rects>
        <_>
          32 18 12 4 -1.</_>
        <_>
          32 18 6 2 2.</_>
        <_>
          38 20 6 2 2.</_></rects>
      <tilted>0</tilted></_>
    <_>
      <rects>
        <_>
          34 0 10 1 -1.</_>
        <_>
          39 0 5 1 2.</_></rects>
      <tilted>0</tilted></_>
    <_>
      <rects>
        <_>
          34 1 10 12 -1.</_>
        <_>
          31 4 10 6 2.</_></rects>
      <tilted>1</tilted></_>
    <_>
      <rects>
        <_>
          34 6 6 14 -1.</_>
        <_>
          34 6 3 14 2.</_></rects>
      <tilted>1</tilted></_>
    <_>
      <rects>
        <_>
          36 1 3 1 -1.</_>
        <_>
          37 1 1 1 3.</_></rects>
      <tilted>0</tilted></_>
    <_>
      <rects>
        <_>
          36 8 12 8 -1.</_>
        <_>
          36 8 6 4 2.</_>
        <_>
          42 12 6 4 2.</_></rects>
      <tilted>0</tilted></_>
    <_>
      <rects>
        <_>
          36 9 12 2 -1.</_>
        <_>
          36 10 12 1 2.</_></rects>
      <tilted>0</tilted></_>
    <_>
      <rects>
        <_>
          40 25 2 1 -1.</_>
        <_>
          41 25 1 1 2.</_></rects>
      <tilted>0</tilted></_>
    <_>
      <rects>
        <_>
          42 25 3 2 -1.</_>
        <_>
          42 26 3 1 2.</_></rects>
      <tilted>0</tilted></_>
    <_>
      <rects>
        <_>
          42 26 6 1 -1.</_>
        <_>
          45 26 3 1 2.</_></rects>
      <tilted>0</tilted></_>
    <_>
      <rects>
        <_>
          46 3 2 18 -1.</_>
        <_>
          46 12 2 9 2.</_></rects>
      <tilted>0</tilted></_>
    <_>
      <rects>
        <_>
          47 0 1 2 -1.</_>
        <_>
          47 1 1 1 2.</_></rects>
      <tilted>0</tilted></_>
    <_>
      <rects>
        <_>
          47 0 1 3 -1.</_>
        <_>
          47 1 1 1 3.</_></rects>
      <tilted>0</tilted></_></features></cascade>
</opencv_storage>
