<?xml version="1.0"?>
<opencv_storage>
<stage1>
  <maxWeakCount>10</maxWeakCount>
  <stageThreshold>-6.1445248126983643e-01</stageThreshold>
  <weakClassifiers>
    <_>
      <internalNodes>
        0 -1 5500 -3.2523434609174728e-02</internalNodes>
      <leafValues>
        -3.0890053510665894e-01 6.0191845893859863e-01</leafValues></_>
    <_>
      <internalNodes>
        0 -1 679560 -3.0184485018253326e-02</internalNodes>
      <leafValues>
        8.1177514791488647e-01 -2.0317411422729492e-01</leafValues></_>
    <_>
      <internalNodes>
        0 -1 579328 -8.8292229920625687e-03</internalNodes>
      <leafValues>
        8.8216423988342285e-01 -1.3953506946563721e-01</leafValues></_>
    <_>
      <internalNodes>
        0 -1 51122 -1.4095236547291279e-03</internalNodes>
      <leafValues>
        -5.6245619058609009e-01 3.2562729716300964e-01</leafValues></_>
    <_>
      <internalNodes>
        0 -1 1120422 1.2031703954562545e-03</internalNodes>
      <leafValues>
        -3.2452017068862915e-01 5.5739426612854004e-01</leafValues></_>
    <_>
      <internalNodes>
        0 -1 264205 8.3948746323585510e-03</internalNodes>
      <leafValues>
        -2.1878041326999664e-01 7.5628030300140381e-01</leafValues></_>
    <_>
      <internalNodes>
        0 -1 482020 -4.2693209252320230e-04</internalNodes>
      <leafValues>
        5.5569207668304443e-01 -2.9039132595062256e-01</leafValues></_>
    <_>
      <internalNodes>
        0 -1 277545 -1.4357034116983414e-02</internalNodes>
      <leafValues>
        5.3064388036727905e-01 -3.2581186294555664e-01</leafValues></_>
    <_>
      <internalNodes>
        0 -1 796939 -1.8252166919410229e-03</internalNodes>
      <leafValues>
        6.8161618709564209e-01 -2.2915647923946381e-01</leafValues></_>
    <_>
      <internalNodes>
        0 -1 173083 -1.6049346595536917e-04</internalNodes>
      <leafValues>
        -7.1786707639694214e-01 2.4373441934585571e-01</leafValues></_></weakClassifiers></stage1>
</opencv_storage>
