<?xml version="1.0"?>
<opencv_storage>
<stage3>
  <maxWeakCount>10</maxWeakCount>
  <stageThreshold>-8.7046837806701660e-01</stageThreshold>
  <weakClassifiers>
    <_>
      <internalNodes>
        0 -1 575973 -1.5141141600906849e-02</internalNodes>
      <leafValues>
        -6.8000000715255737e-01 4.5590993762016296e-01</leafValues></_>
    <_>
      <internalNodes>
        0 -1 750011 2.2101877257227898e-03</internalNodes>
      <leafValues>
        -3.4031856060028076e-01 5.0835072994232178e-01</leafValues></_>
    <_>
      <internalNodes>
        0 -1 433453 -8.1066954880952835e-03</internalNodes>
      <leafValues>
        5.3731310367584229e-01 -3.3979079127311707e-01</leafValues></_>
    <_>
      <internalNodes>
        0 -1 202592 -2.4670152924954891e-05</internalNodes>
      <leafValues>
        4.7902131080627441e-01 -3.2733726501464844e-01</leafValues></_>
    <_>
      <internalNodes>
        0 -1 47516 1.7248683143407106e-03</internalNodes>
      <leafValues>
        1.9983455538749695e-01 -8.0166560411453247e-01</leafValues></_>
    <_>
      <internalNodes>
        0 -1 1279145 -5.9048384428024292e-03</internalNodes>
      <leafValues>
        -4.7198429703712463e-01 3.5021412372589111e-01</leafValues></_>
    <_>
      <internalNodes>
        0 -1 61599 -9.7909383475780487e-03</internalNodes>
      <leafValues>
        6.4394748210906982e-01 -2.9160815477371216e-01</leafValues></_>
    <_>
      <internalNodes>
        0 -1 1262104 2.6900586817646399e-05</internalNodes>
      <leafValues>
        -3.1456521153450012e-01 4.5307704806327820e-01</leafValues></_>
    <_>
      <internalNodes>
        0 -1 292492 2.3795128072379157e-05</internalNodes>
      <leafValues>
        -3.2109105587005615e-01 4.9076509475708008e-01</leafValues></_>
    <_>
      <internalNodes>
        0 -1 876893 -1.2894975952804089e-04</internalNodes>
      <leafValues>
        -6.1673760414123535e-01 3.0798181891441345e-01</leafValues></_></weakClassifiers></stage3>
</opencv_storage>
