<?xml version="1.0"?>
<opencv_storage>
<stage11>
  <maxWeakCount>9</maxWeakCount>
  <stageThreshold>-3.9582848548889160e-01</stageThreshold>
  <weakClassifiers>
    <_>
      <internalNodes>
        0 -1 172945 2.6137323584407568e-04</internalNodes>
      <leafValues>
        5.2577316761016846e-01 -5.1219511032104492e-01</leafValues></_>
    <_>
      <internalNodes>
        0 -1 22353 -1.7555661906953901e-04</internalNodes>
      <leafValues>
        -6.3694608211517334e-01 2.5830981135368347e-01</leafValues></_>
    <_>
      <internalNodes>
        0 -1 1146224 7.2109386324882507e-02</internalNodes>
      <leafValues>
        -1.7354556918144226e-01 8.4329175949096680e-01</leafValues></_>
    <_>
      <internalNodes>
        0 -1 578529 1.8412701785564423e-02</internalNodes>
      <leafValues>
        -2.8667449951171875e-01 5.5644023418426514e-01</leafValues></_>
    <_>
      <internalNodes>
        0 -1 1176092 1.9823995535261929e-04</internalNodes>
      <leafValues>
        2.5122418999671936e-01 -7.5904083251953125e-01</leafValues></_>
    <_>
      <internalNodes>
        0 -1 15249 -1.0776821523904800e-02</internalNodes>
      <leafValues>
        5.3189885616302490e-01 -2.6976025104522705e-01</leafValues></_>
    <_>
      <internalNodes>
        0 -1 342077 -1.9711893051862717e-02</internalNodes>
      <leafValues>
        6.4714527130126953e-01 -2.4451372027397156e-01</leafValues></_>
    <_>
      <internalNodes>
        0 -1 1280881 1.6559602227061987e-04</internalNodes>
      <leafValues>
        2.6309356093406677e-01 -6.5576833486557007e-01</leafValues></_>
    <_>
      <internalNodes>
        0 -1 276058 -1.7147824168205261e-02</internalNodes>
      <leafValues>
        3.7037423253059387e-01 -4.2908230423927307e-01</leafValues></_></weakClassifiers></stage11>
</opencv_storage>
