<?xml version="1.0"?>
<opencv_storage>
<stage9>
  <maxWeakCount>7</maxWeakCount>
  <stageThreshold>-3.6888372898101807e-01</stageThreshold>
  <weakClassifiers>
    <_>
      <internalNodes>
        0 -1 781882 6.7293032770976424e-04</internalNodes>
      <leafValues>
        -5.2980132400989532e-02 6.7973858118057251e-01</leafValues></_>
    <_>
      <internalNodes>
        0 -1 47830 -6.8047535605728626e-03</internalNodes>
      <leafValues>
        5.7065296173095703e-01 -1.8086323142051697e-01</leafValues></_>
    <_>
      <internalNodes>
        0 -1 551434 -4.9469601362943649e-03</internalNodes>
      <leafValues>
        5.0228220224380493e-01 -2.5909495353698730e-01</leafValues></_>
    <_>
      <internalNodes>
        0 -1 794343 3.0810418538749218e-03</internalNodes>
      <leafValues>
        -2.2868412733078003e-01 6.7520332336425781e-01</leafValues></_>
    <_>
      <internalNodes>
        0 -1 1004083 1.6649242490530014e-02</internalNodes>
      <leafValues>
        -1.9780804216861725e-01 7.1417593955993652e-01</leafValues></_>
    <_>
      <internalNodes>
        0 -1 139680 -1.9269606564193964e-03</internalNodes>
      <leafValues>
        -7.6314502954483032e-01 2.3424917459487915e-01</leafValues></_>
    <_>
      <internalNodes>
        0 -1 40662 5.4051978513598442e-03</internalNodes>
      <leafValues>
        -1.9920158386230469e-01 6.2746286392211914e-01</leafValues></_></weakClassifiers></stage9>
</opencv_storage>
