<?xml version="1.0"?>
<opencv_storage>
<stage6>
  <maxWeakCount>6</maxWeakCount>
  <stageThreshold>-1.4494134187698364e+00</stageThreshold>
  <weakClassifiers>
    <_>
      <internalNodes>
        0 -1 618328 -1.0768006742000580e-01</internalNodes>
      <leafValues>
        6.0000002384185791e-01 -5.7475084066390991e-01</leafValues></_>
    <_>
      <internalNodes>
        0 -1 22127 -2.1101476624608040e-02</internalNodes>
      <leafValues>
        4.2455738782882690e-01 -4.2480233311653137e-01</leafValues></_>
    <_>
      <internalNodes>
        0 -1 519418 5.9199575334787369e-03</internalNodes>
      <leafValues>
        -3.4326389431953430e-01 5.7246351242065430e-01</leafValues></_>
    <_>
      <internalNodes>
        0 -1 40607 -9.0916909277439117e-02</internalNodes>
      <leafValues>
        4.4594758749008179e-01 -3.6309298872947693e-01</leafValues></_>
    <_>
      <internalNodes>
        0 -1 401588 -3.8527667522430420e-02</internalNodes>
      <leafValues>
        8.9952480792999268e-01 -1.7462009191513062e-01</leafValues></_>
    <_>
      <internalNodes>
        0 -1 780196 4.7863114741630852e-04</internalNodes>
      <leafValues>
        -4.8461070656776428e-01 3.1989786028862000e-01</leafValues></_></weakClassifiers></stage6>
</opencv_storage>
