<?xml version="1.0"?>
<opencv_storage>
<stage7>
  <maxWeakCount>6</maxWeakCount>
  <stageThreshold>-9.9177014827728271e-01</stageThreshold>
  <weakClassifiers>
    <_>
      <internalNodes>
        0 -1 702122 2.6772383600473404e-02</internalNodes>
      <leafValues>
        -6.8736618757247925e-01 1.2888889014720917e-01</leafValues></_>
    <_>
      <internalNodes>
        0 -1 33080 1.9326721667312086e-04</internalNodes>
      <leafValues>
        1.2799972295761108e-01 -9.0541809797286987e-01</leafValues></_>
    <_>
      <internalNodes>
        0 -1 34406 4.0130078559741378e-05</internalNodes>
      <leafValues>
        -6.4938384294509888e-01 2.2488151490688324e-01</leafValues></_>
    <_>
      <internalNodes>
        0 -1 18945 -1.4523152261972427e-02</internalNodes>
      <leafValues>
        4.9209383130073547e-01 -3.8427093625068665e-01</leafValues></_>
    <_>
      <internalNodes>
        0 -1 476285 -5.2598882466554642e-03</internalNodes>
      <leafValues>
        6.1586767435073853e-01 -2.5194239616394043e-01</leafValues></_>
    <_>
      <internalNodes>
        0 -1 4811 2.4180913169402629e-04</internalNodes>
      <leafValues>
        1.9399142265319824e-01 -9.0258854627609253e-01</leafValues></_></weakClassifiers></stage7>
</opencv_storage>
