<?xml version="1.0"?>
<opencv_storage>
<stage8>
  <maxWeakCount>7</maxWeakCount>
  <stageThreshold>-1.1576168537139893e+00</stageThreshold>
  <weakClassifiers>
    <_>
      <internalNodes>
        0 -1 429060 -6.6864080727100372e-02</internalNodes>
      <leafValues>
        8.7999999523162842e-01 -5.2336448431015015e-01</leafValues></_>
    <_>
      <internalNodes>
        0 -1 130163 -6.4177205786108971e-04</internalNodes>
      <leafValues>
        2.4899923801422119e-01 -6.4284658432006836e-01</leafValues></_>
    <_>
      <internalNodes>
        0 -1 2448 -1.5478073328267783e-04</internalNodes>
      <leafValues>
        -9.1756737232208252e-01 2.0472644269466400e-01</leafValues></_>
    <_>
      <internalNodes>
        0 -1 435709 -6.7540794610977173e-02</internalNodes>
      <leafValues>
        4.9044358730316162e-01 -3.1099823117256165e-01</leafValues></_>
    <_>
      <internalNodes>
        0 -1 809956 2.4218700127676129e-04</internalNodes>
      <leafValues>
        -5.3117430210113525e-01 3.5326057672500610e-01</leafValues></_>
    <_>
      <internalNodes>
        0 -1 451528 5.9765698388218880e-03</internalNodes>
      <leafValues>
        -2.5035494565963745e-01 5.9070062637329102e-01</leafValues></_>
    <_>
      <internalNodes>
        0 -1 5 1.7167965415865183e-04</internalNodes>
      <leafValues>
        2.1371741592884064e-01 -7.9689240455627441e-01</leafValues></_></weakClassifiers></stage8>
</opencv_storage>
