<?xml version="1.0"?>
<opencv_storage>
<stage12>
  <maxWeakCount>10</maxWeakCount>
  <stageThreshold>-1.2404135465621948e+00</stageThreshold>
  <weakClassifiers>
    <_>
      <internalNodes>
        0 -1 736730 -4.9590349197387695e-02</internalNodes>
      <leafValues>
        9.1304349899291992e-01 -5.1702785491943359e-01</leafValues></_>
    <_>
      <internalNodes>
        0 -1 815728 6.9509691093116999e-04</internalNodes>
      <leafValues>
        -4.8648592829704285e-01 4.0564885735511780e-01</leafValues></_>
    <_>
      <internalNodes>
        0 -1 616858 2.1717794879805297e-04</internalNodes>
      <leafValues>
        -2.3890905082225800e-01 4.7544959187507629e-01</leafValues></_>
    <_>
      <internalNodes>
        0 -1 725860 -1.9644934684038162e-02</internalNodes>
      <leafValues>
        4.6637937426567078e-01 -2.9215347766876221e-01</leafValues></_>
    <_>
      <internalNodes>
        0 -1 701914 8.0550629645586014e-03</internalNodes>
      <leafValues>
        -2.0163610577583313e-01 6.6876620054244995e-01</leafValues></_>
    <_>
      <internalNodes>
        0 -1 727560 4.6183757483959198e-02</internalNodes>
      <leafValues>
        -2.2243182361125946e-01 6.0197365283966064e-01</leafValues></_>
    <_>
      <internalNodes>
        0 -1 58823 -3.5363387723919004e-05</internalNodes>
      <leafValues>
        3.8563382625579834e-01 -4.3989962339401245e-01</leafValues></_>
    <_>
      <internalNodes>
        0 -1 752777 2.2827503562439233e-04</internalNodes>
      <leafValues>
        -3.2607343792915344e-01 4.4080853462219238e-01</leafValues></_>
    <_>
      <internalNodes>
        0 -1 786778 -1.2983495253138244e-04</internalNodes>
      <leafValues>
        -7.0947271585464478e-01 2.0377562940120697e-01</leafValues></_>
    <_>
      <internalNodes>
        0 -1 450448 2.6031140238046646e-02</internalNodes>
      <leafValues>
        -2.5946390628814697e-01 5.6115221977233887e-01</leafValues></_></weakClassifiers></stage12>
</opencv_storage>
