<?xml version="1.0"?>
<opencv_storage>
<stage10>
  <maxWeakCount>11</maxWeakCount>
  <stageThreshold>-1.3227114677429199e+00</stageThreshold>
  <weakClassifiers>
    <_>
      <internalNodes>
        0 -1 31783 1.2718114256858826e-01</internalNodes>
      <leafValues>
        -5.1713395118713379e-01 8.0000001192092896e-01</leafValues></_>
    <_>
      <internalNodes>
        0 -1 220145 2.0652064122259617e-03</internalNodes>
      <leafValues>
        1.1815413087606430e-01 -8.7629234790802002e-01</leafValues></_>
    <_>
      <internalNodes>
        0 -1 499469 -3.4236013889312744e-01</internalNodes>
      <leafValues>
        -1. 1.6494120657444000e-01</leafValues></_>
    <_>
      <internalNodes>
        0 -1 635691 -5.3086997941136360e-03</internalNodes>
      <leafValues>
        2.7643042802810669e-01 -6.0140854120254517e-01</leafValues></_>
    <_>
      <internalNodes>
        0 -1 713230 2.8500752523541451e-04</internalNodes>
      <leafValues>
        -5.0445455312728882e-01 2.3739893734455109e-01</leafValues></_>
    <_>
      <internalNodes>
        0 -1 6937 6.3343690708279610e-03</internalNodes>
      <leafValues>
        -2.2575002908706665e-01 5.7322782278060913e-01</leafValues></_>
    <_>
      <internalNodes>
        0 -1 807319 2.3795750166755170e-05</internalNodes>
      <leafValues>
        -4.7757732868194580e-01 2.6979428529739380e-01</leafValues></_>
    <_>
      <internalNodes>
        0 -1 726276 -7.2322797495871782e-04</internalNodes>
      <leafValues>
        7.6938092708587646e-01 -1.7489549517631531e-01</leafValues></_>
    <_>
      <internalNodes>
        0 -1 145300 -5.2443001419305801e-02</internalNodes>
      <leafValues>
        -8.5841959714889526e-01 1.7396786808967590e-01</leafValues></_>
    <_>
      <internalNodes>
        0 -1 263937 3.4846726804971695e-02</internalNodes>
      <leafValues>
        1.6028244793415070e-01 -7.3686021566390991e-01</leafValues></_>
    <_>
      <internalNodes>
        0 -1 32143 -3.1580105423927307e-03</internalNodes>
      <leafValues>
        -9.2806231975555420e-01 1.0930112749338150e-01</leafValues></_></weakClassifiers></stage10>
</opencv_storage>
