<?xml version="1.0"?>
<opencv_storage>
<stage6>
  <maxWeakCount>7</maxWeakCount>
  <stageThreshold>-6.1584627628326416e-01</stageThreshold>
  <weakClassifiers>
    <_>
      <internalNodes>
        0 -1 1280827 2.0221815793775022e-04</internalNodes>
      <leafValues>
        5.2727270126342773e-01 -6.1061948537826538e-01</leafValues></_>
    <_>
      <internalNodes>
        0 -1 340112 1.7862538807094097e-03</internalNodes>
      <leafValues>
        3.4356108307838440e-01 -5.7550531625747681e-01</leafValues></_>
    <_>
      <internalNodes>
        0 -1 1035699 -4.0613621473312378e-02</internalNodes>
      <leafValues>
        7.8515487909317017e-01 -2.4386057257652283e-01</leafValues></_>
    <_>
      <internalNodes>
        0 -1 8 -1.7001373635139316e-04</internalNodes>
      <leafValues>
        -9.1753304004669189e-01 2.2156105935573578e-01</leafValues></_>
    <_>
      <internalNodes>
        0 -1 44073 3.2291188836097717e-04</internalNodes>
      <leafValues>
        2.2536087036132813e-01 -6.7906218767166138e-01</leafValues></_>
    <_>
      <internalNodes>
        0 -1 1177416 1.1946549057029188e-04</internalNodes>
      <leafValues>
        2.0350274443626404e-01 -7.9923087358474731e-01</leafValues></_>
    <_>
      <internalNodes>
        0 -1 815696 -1.6605120152235031e-02</internalNodes>
      <leafValues>
        -9.3427163362503052e-01 1.4907100796699524e-01</leafValues></_></weakClassifiers></stage6>
</opencv_storage>
