<?xml version="1.0"?>
<opencv_storage>
<stage14>
  <maxWeakCount>8</maxWeakCount>
  <stageThreshold>-8.4719789028167725e-01</stageThreshold>
  <weakClassifiers>
    <_>
      <internalNodes>
        0 -1 645772 -1.6166695952415466e-01</internalNodes>
      <leafValues>
        4.3137255311012268e-01 -5.6949150562286377e-01</leafValues></_>
    <_>
      <internalNodes>
        0 -1 44944 -4.8219701275229454e-03</internalNodes>
      <leafValues>
        2.3921152949333191e-01 -4.8050373792648315e-01</leafValues></_>
    <_>
      <internalNodes>
        0 -1 798569 -2.1646133973263204e-04</internalNodes>
      <leafValues>
        -8.7608003616333008e-01 1.2067747861146927e-01</leafValues></_>
    <_>
      <internalNodes>
        0 -1 480903 1.7106914310716093e-04</internalNodes>
      <leafValues>
        2.0538370311260223e-01 -6.3505232334136963e-01</leafValues></_>
    <_>
      <internalNodes>
        0 -1 815983 -1.8730471492744982e-04</internalNodes>
      <leafValues>
        -7.2852134704589844e-01 1.1742598563432693e-01</leafValues></_>
    <_>
      <internalNodes>
        0 -1 536977 -1.3068022672086954e-03</internalNodes>
      <leafValues>
        5.1771521568298340e-01 -2.4237728118896484e-01</leafValues></_>
    <_>
      <internalNodes>
        0 -1 661711 -1.2393875978887081e-02</internalNodes>
      <leafValues>
        3.6238849163055420e-01 -3.4887155890464783e-01</leafValues></_>
    <_>
      <internalNodes>
        0 -1 521136 9.1535851359367371e-02</internalNodes>
      <leafValues>
        -1.3249121606349945e-01 8.5945272445678711e-01</leafValues></_></weakClassifiers></stage14>
</opencv_storage>
