<?xml version="1.0"?>
<opencv_storage>
<cascade>
  <stageType>BOOST</stageType>
  <featureType>HAAR</featureType>
  <height>27</height>
  <width>48</width>
  <stageParams>
    <boostType>GAB</boostType>
    <minHitRate>9.9500000476837158e-01</minHitRate>
    <maxFalseAlarm>5.0000000000000000e-01</maxFalseAlarm>
    <weightTrimRate>9.4999999999999996e-01</weightTrimRate>
    <maxDepth>1</maxDepth>
    <maxWeakCount>100</maxWeakCount></stageParams>
  <featureParams>
    <maxCatCount>0</maxCatCount>
    <featSize>1</featSize>
    <mode>ALL</mode></featureParams>
  <stageNum>20</stageNum>
  <stages>
    <!-- stage 0 -->
    <_>
      <maxWeakCount>5</maxWeakCount>
      <stageThreshold>-8.0931609869003296e-01</stageThreshold>
      <weakClassifiers>
        <_>
          <internalNodes>
            0 -1 104 2.9088294832035899e-04</internalNodes>
          <leafValues>
            -6.3953489065170288e-01 4.3220338225364685e-01</leafValues></_>
        <_>
          <internalNodes>
            0 -1 126 -6.1298010405153036e-04</internalNodes>
          <leafValues>
            6.9043076038360596e-01 -3.9701619744300842e-01</leafValues></_>
        <_>
          <internalNodes>
            0 -1 67 -4.9384022131562233e-03</internalNodes>
          <leafValues>
            6.4401447772979736e-01 -4.9019530415534973e-01</leafValues></_>
        <_>
          <internalNodes>
            0 -1 130 -2.5852528779068962e-05</internalNodes>
          <leafValues>
            4.6718385815620422e-01 -6.0690879821777344e-01</leafValues></_>
        <_>
          <internalNodes>
            0 -1 39 -4.9111157655715942e-02</internalNodes>
          <leafValues>
            -9.8489522933959961e-01 2.5260081887245178e-01</leafValues></_></weakClassifiers></_>
    <!-- stage 1 -->
    <_>
      <maxWeakCount>7</maxWeakCount>
      <stageThreshold>-9.1639965772628784e-01</stageThreshold>
      <weakClassifiers>
        <_>
          <internalNodes>
            0 -1 57 -8.8101634755730629e-03</internalNodes>
          <leafValues>
            7.7981650829315186e-01 -3.1103679537773132e-01</leafValues></_>
        <_>
          <internalNodes>
            0 -1 101 -5.6334454566240311e-03</internalNodes>
          <leafValues>
            6.1680883169174194e-01 -3.1992918252944946e-01</leafValues></_>
        <_>
          <internalNodes>
            0 -1 81 5.7308815419673920e-02</internalNodes>
          <leafValues>
            -2.8135302662849426e-01 7.2260087728500366e-01</leafValues></_>
        <_>
          <internalNodes>
            0 -1 115 -5.3845555521547794e-04</internalNodes>
          <leafValues>
            4.8066455125808716e-01 -4.9162346124649048e-01</leafValues></_>
        <_>
          <internalNodes>
            0 -1 94 -3.6279980558902025e-03</internalNodes>
          <leafValues>
            8.0980873107910156e-01 -2.5621059536933899e-01</leafValues></_>
        <_>
          <internalNodes>
            0 -1 2 1.7092522466555238e-04</internalNodes>
          <leafValues>
            3.3681094646453857e-01 -8.1173992156982422e-01</leafValues></_>
        <_>
          <internalNodes>
            0 -1 61 -7.9044757876545191e-04</internalNodes>
          <leafValues>
            5.9656417369842529e-01 -4.2074859142303467e-01</leafValues></_></weakClassifiers></_>
    <!-- stage 2 -->
    <_>
      <maxWeakCount>7</maxWeakCount>
      <stageThreshold>-6.9983625411987305e-01</stageThreshold>
      <weakClassifiers>
        <_>
          <internalNodes>
            0 -1 96 7.2653766255825758e-04</internalNodes>
          <leafValues>
            -5.4430377483367920e-01 3.1200000643730164e-01</leafValues></_>
        <_>
          <internalNodes>
            0 -1 53 5.7378117926418781e-03</internalNodes>
          <leafValues>
            -3.7771689891815186e-01 4.7649478912353516e-01</leafValues></_>
        <_>
          <internalNodes>
            0 -1 49 -1.8910024664364755e-04</internalNodes>
          <leafValues>
            -8.0799072980880737e-01 2.4353770911693573e-01</leafValues></_>
        <_>
          <internalNodes>
            0 -1 114 1.0777737479656935e-03</internalNodes>
          <leafValues>
            -4.0105915069580078e-01 4.6879854798316956e-01</leafValues></_>
        <_>
          <internalNodes>
            0 -1 147 1.0453926399350166e-02</internalNodes>
          <leafValues>
            -2.5521954894065857e-01 7.2477585077285767e-01</leafValues></_>
        <_>
          <internalNodes>
            0 -1 131 -2.3858893837314099e-04</internalNodes>
          <leafValues>
            -6.3797932863235474e-01 3.2876271009445190e-01</leafValues></_>
        <_>
          <internalNodes>
            0 -1 124 -5.2739242091774940e-03</internalNodes>
          <leafValues>
            6.0954934358596802e-01 -3.5282430052757263e-01</leafValues></_></weakClassifiers></_>
    <!-- stage 3 -->
    <_>
      <maxWeakCount>9</maxWeakCount>
      <stageThreshold>-1.1384301185607910e+00</stageThreshold>
      <weakClassifiers>
        <_>
          <internalNodes>
            0 -1 24 -1.7010692972689867e-03</internalNodes>
          <leafValues>
            6.4800000190734863e-01 -3.1448763608932495e-01</leafValues></_>
        <_>
          <internalNodes>
            0 -1 51 -1.1618254706263542e-02</internalNodes>
          <leafValues>
            5.0965666770935059e-01 -3.8295865058898926e-01</leafValues></_>
        <_>
          <internalNodes>
            0 -1 85 1.2651510769501328e-04</internalNodes>
          <leafValues>
            2.1703231334686279e-01 -8.3680582046508789e-01</leafValues></_>
        <_>
          <internalNodes>
            0 -1 6 1.2786301970481873e-01</internalNodes>
          <leafValues>
            1.9436103105545044e-01 -8.9530771970748901e-01</leafValues></_>
        <_>
          <internalNodes>
            0 -1 129 1.6358372522518039e-04</internalNodes>
          <leafValues>
            1.2016686052083969e-01 -9.6820002794265747e-01</leafValues></_>
        <_>
          <internalNodes>
            0 -1 113 2.8282314538955688e-02</internalNodes>
          <leafValues>
            -3.5343399643898010e-01 5.9583067893981934e-01</leafValues></_>
        <_>
          <internalNodes>
            0 -1 43 -4.1571920737624168e-03</internalNodes>
          <leafValues>
            5.6471848487854004e-01 -3.8703924417495728e-01</leafValues></_>
        <_>
          <internalNodes>
            0 -1 20 1.1129215272376314e-04</internalNodes>
          <leafValues>
            2.8797414898872375e-01 -7.5081706047058105e-01</leafValues></_>
        <_>
          <internalNodes>
            0 -1 41 -1.4679690357297659e-03</internalNodes>
          <leafValues>
            5.7130235433578491e-01 -4.3301138281822205e-01</leafValues></_></weakClassifiers></_>
    <!-- stage 4 -->
    <_>
      <maxWeakCount>6</maxWeakCount>
      <stageThreshold>-6.6131466627120972e-01</stageThreshold>
      <weakClassifiers>
        <_>
          <internalNodes>
            0 -1 80 -1.0094968602061272e-02</internalNodes>
          <leafValues>
            8.2608693838119507e-01 -2.6582279801368713e-01</leafValues></_>
        <_>
          <internalNodes>
            0 -1 50 -3.4178800880908966e-02</internalNodes>
          <leafValues>
            5.6999760866165161e-01 -2.9818293452262878e-01</leafValues></_>
        <_>
          <internalNodes>
            0 -1 54 3.1108807772397995e-02</internalNodes>
          <leafValues>
            1.6796268522739410e-01 -9.4861161708831787e-01</leafValues></_>
        <_>
          <internalNodes>
            0 -1 1 -1.5207330579869449e-04</internalNodes>
          <leafValues>
            -8.9980626106262207e-01 2.0863230526447296e-01</leafValues></_>
        <_>
          <internalNodes>
            0 -1 60 1.7886005807667971e-03</internalNodes>
          <leafValues>
            -4.3309509754180908e-01 4.2993938922882080e-01</leafValues></_>
        <_>
          <internalNodes>
            0 -1 4 -4.8837799113243818e-04</internalNodes>
          <leafValues>
            -9.0384334325790405e-01 2.6759466528892517e-01</leafValues></_></weakClassifiers></_>
    <!-- stage 5 -->
    <_>
      <maxWeakCount>4</maxWeakCount>
      <stageThreshold>-9.1600871086120605e-01</stageThreshold>
      <weakClassifiers>
        <_>
          <internalNodes>
            0 -1 5 1.7035106429830194e-04</internalNodes>
          <leafValues>
            2.5641027092933655e-01 -9.1666668653488159e-01</leafValues></_>
        <_>
          <internalNodes>
            0 -1 149 -1.5947889187373221e-04</internalNodes>
          <leafValues>
            -8.9603024721145630e-01 2.1235157549381256e-01</leafValues></_>
        <_>
          <internalNodes>
            0 -1 38 3.7244422128424048e-04</internalNodes>
          <leafValues>
            3.1408372521400452e-01 -6.7173928022384644e-01</leafValues></_>
        <_>
          <internalNodes>
            0 -1 8 1.5277654165402055e-04</internalNodes>
          <leafValues>
            3.3883434534072876e-01 -7.1303123235702515e-01</leafValues></_></weakClassifiers></_>
    <!-- stage 6 -->
    <_>
      <maxWeakCount>7</maxWeakCount>
      <stageThreshold>-5.8494120836257935e-01</stageThreshold>
      <weakClassifiers>
        <_>
          <internalNodes>
            0 -1 3 1.8334574997425079e-04</internalNodes>
          <leafValues>
            2.7759197354316711e-01 -8.3486241102218628e-01</leafValues></_>
        <_>
          <internalNodes>
            0 -1 68 -1.6116708517074585e-02</internalNodes>
          <leafValues>
            6.8709778785705566e-01 -3.4714883565902710e-01</leafValues></_>
        <_>
          <internalNodes>
            0 -1 137 1.7513034981675446e-04</internalNodes>
          <leafValues>
            2.6018524169921875e-01 -8.4689229726791382e-01</leafValues></_>
        <_>
          <internalNodes>
            0 -1 76 1.3161565584596246e-04</internalNodes>
          <leafValues>
            2.1379280090332031e-01 -8.6088323593139648e-01</leafValues></_>
        <_>
          <internalNodes>
            0 -1 23 5.2149899303913116e-02</internalNodes>
          <leafValues>
            -2.8858807682991028e-01 8.3093529939651489e-01</leafValues></_>
        <_>
          <internalNodes>
            0 -1 59 2.5577234104275703e-02</internalNodes>
          <leafValues>
            -3.1766921281814575e-01 6.9395178556442261e-01</leafValues></_>
        <_>
          <internalNodes>
            0 -1 11 -5.2554965019226074e-02</internalNodes>
          <leafValues>
            7.5390130281448364e-01 -3.4974464774131775e-01</leafValues></_></weakClassifiers></_>
    <!-- stage 7 -->
    <_>
      <maxWeakCount>8</maxWeakCount>
      <stageThreshold>-7.7330160140991211e-01</stageThreshold>
      <weakClassifiers>
        <_>
          <internalNodes>
            0 -1 27 -2.7429374313214794e-05</internalNodes>
          <leafValues>
            5.1162791252136230e-01 -4.0677964687347412e-01</leafValues></_>
        <_>
          <internalNodes>
            0 -1 15 -3.6952130030840635e-03</internalNodes>
          <leafValues>
            6.1807060241699219e-01 -2.8264793753623962e-01</leafValues></_>
        <_>
          <internalNodes>
            0 -1 12 -2.2200788371264935e-03</internalNodes>
          <leafValues>
            4.7549289464950562e-01 -3.7170124053955078e-01</leafValues></_>
        <_>
          <internalNodes>
            0 -1 40 -3.3663637936115265e-02</internalNodes>
          <leafValues>
            -9.5058703422546387e-01 1.8753258883953094e-01</leafValues></_>
        <_>
          <internalNodes>
            0 -1 69 -5.6137517094612122e-03</internalNodes>
          <leafValues>
            6.0472601652145386e-01 -3.3513018488883972e-01</leafValues></_>
        <_>
          <internalNodes>
            0 -1 79 -1.1695899069309235e-02</internalNodes>
          <leafValues>
            7.1325141191482544e-01 -2.7225774526596069e-01</leafValues></_>
        <_>
          <internalNodes>
            0 -1 108 -6.5943773370236158e-04</internalNodes>
          <leafValues>
            -6.4193207025527954e-01 3.4255397319793701e-01</leafValues></_>
        <_>
          <internalNodes>
            0 -1 121 -2.6191526558250189e-04</internalNodes>
          <leafValues>
            4.1239157319068909e-01 -5.0864911079406738e-01</leafValues></_></weakClassifiers></_>
    <!-- stage 8 -->
    <_>
      <maxWeakCount>9</maxWeakCount>
      <stageThreshold>-1.0196841955184937e+00</stageThreshold>
      <weakClassifiers>
        <_>
          <internalNodes>
            0 -1 83 -9.8959123715758324e-04</internalNodes>
          <leafValues>
            5.1898735761642456e-01 -3.6000001430511475e-01</leafValues></_>
        <_>
          <internalNodes>
            0 -1 118 1.5388338943012059e-04</internalNodes>
          <leafValues>
            -3.2406765222549438e-01 4.5721802115440369e-01</leafValues></_>
        <_>
          <internalNodes>
            0 -1 84 -1.9925371743738651e-03</internalNodes>
          <leafValues>
            5.4392838478088379e-01 -2.9676082730293274e-01</leafValues></_>
        <_>
          <internalNodes>
            0 -1 119 6.0790414863731712e-05</internalNodes>
          <leafValues>
            -4.2549720406532288e-01 3.9443320035934448e-01</leafValues></_>
        <_>
          <internalNodes>
            0 -1 25 -7.7041011536493897e-05</internalNodes>
          <leafValues>
            4.5168021321296692e-01 -3.8606694340705872e-01</leafValues></_>
        <_>
          <internalNodes>
            0 -1 46 -5.8479950530454516e-04</internalNodes>
          <leafValues>
            4.5446434617042542e-01 -4.0874758362770081e-01</leafValues></_>
        <_>
          <internalNodes>
            0 -1 58 -5.1751002669334412e-02</internalNodes>
          <leafValues>
            4.5035180449485779e-01 -3.8042947649955750e-01</leafValues></_>
        <_>
          <internalNodes>
            0 -1 125 -5.4336986504495144e-03</internalNodes>
          <leafValues>
            5.7861518859863281e-01 -3.8632836937904358e-01</leafValues></_>
        <_>
          <internalNodes>
            0 -1 35 -2.5768420891836286e-04</internalNodes>
          <leafValues>
            -6.2167495489120483e-01 2.7968537807464600e-01</leafValues></_></weakClassifiers></_>
    <!-- stage 9 -->
    <_>
      <maxWeakCount>5</maxWeakCount>
      <stageThreshold>-9.7026968002319336e-01</stageThreshold>
      <weakClassifiers>
        <_>
          <internalNodes>
            0 -1 148 -2.8962752548977733e-04</internalNodes>
          <leafValues>
            -8.3999997377395630e-01 2.4675324559211731e-01</leafValues></_>
        <_>
          <internalNodes>
            0 -1 36 2.6111787883564830e-04</internalNodes>
          <leafValues>
            2.3072305321693420e-01 -7.4599820375442505e-01</leafValues></_>
        <_>
          <internalNodes>
            0 -1 65 1.4148041605949402e-02</internalNodes>
          <leafValues>
            -4.0411403775215149e-01 5.6214189529418945e-01</leafValues></_>
        <_>
          <internalNodes>
            0 -1 128 -3.8932031020522118e-04</internalNodes>
          <leafValues>
            -9.7044539451599121e-01 1.8431334197521210e-01</leafValues></_>
        <_>
          <internalNodes>
            0 -1 10 -2.7830883860588074e-01</internalNodes>
          <leafValues>
            8.6651617288589478e-01 -2.5122404098510742e-01</leafValues></_></weakClassifiers></_>
    <!-- stage 10 -->
    <_>
      <maxWeakCount>8</maxWeakCount>
      <stageThreshold>-9.0879923105239868e-01</stageThreshold>
      <weakClassifiers>
        <_>
          <internalNodes>
            0 -1 98 1.3044587336480618e-02</internalNodes>
          <leafValues>
            -2.6315790414810181e-01 6.9230771064758301e-01</leafValues></_>
        <_>
          <internalNodes>
            0 -1 22 1.2776468065567315e-04</internalNodes>
          <leafValues>
            2.6316571235656738e-01 -7.8929567337036133e-01</leafValues></_>
        <_>
          <internalNodes>
            0 -1 19 -1.0644446592777967e-04</internalNodes>
          <leafValues>
            -7.6480251550674438e-01 1.9470787048339844e-01</leafValues></_>
        <_>
          <internalNodes>
            0 -1 135 1.9216000509914011e-04</internalNodes>
          <leafValues>
            -4.8002073168754578e-01 3.5269832611083984e-01</leafValues></_>
        <_>
          <internalNodes>
            0 -1 29 2.0961889822501689e-04</internalNodes>
          <leafValues>
            1.2792685627937317e-01 -9.0497297048568726e-01</leafValues></_>
        <_>
          <internalNodes>
            0 -1 28 -1.8758655642159283e-05</internalNodes>
          <leafValues>
            5.1638317108154297e-01 -3.1748095154762268e-01</leafValues></_>
        <_>
          <internalNodes>
            0 -1 17 -7.2785379597917199e-04</internalNodes>
          <leafValues>
            4.3273219466209412e-01 -4.2280432581901550e-01</leafValues></_>
        <_>
          <internalNodes>
            0 -1 92 -6.3187268096953630e-04</internalNodes>
          <leafValues>
            -9.0659552812576294e-01 2.0860654115676880e-01</leafValues></_></weakClassifiers></_>
    <!-- stage 11 -->
    <_>
      <maxWeakCount>10</maxWeakCount>
      <stageThreshold>-1.0590809583663940e+00</stageThreshold>
      <weakClassifiers>
        <_>
          <internalNodes>
            0 -1 103 -1.4059838140383363e-03</internalNodes>
          <leafValues>
            6.5891474485397339e-01 -3.3333334326744080e-01</leafValues></_>
        <_>
          <internalNodes>
            0 -1 110 5.4603163152933121e-04</internalNodes>
          <leafValues>
            -2.4786236882209778e-01 5.8793187141418457e-01</leafValues></_>
        <_>
          <internalNodes>
            0 -1 7 -6.7040193825960159e-03</internalNodes>
          <leafValues>
            6.3065868616104126e-01 -2.1358469128608704e-01</leafValues></_>
        <_>
          <internalNodes>
            0 -1 134 8.2260174676775932e-03</internalNodes>
          <leafValues>
            -2.9001358151435852e-01 5.7858389616012573e-01</leafValues></_>
        <_>
          <internalNodes>
            0 -1 77 1.9162925891578197e-03</internalNodes>
          <leafValues>
            -2.2351485490798950e-01 6.1676305532455444e-01</leafValues></_>
        <_>
          <internalNodes>
            0 -1 144 1.6180612146854401e-04</internalNodes>
          <leafValues>
            2.7756324410438538e-01 -6.5389394760131836e-01</leafValues></_>
        <_>
          <internalNodes>
            0 -1 44 8.1647112965583801e-02</internalNodes>
          <leafValues>
            2.2111541032791138e-01 -8.0989432334899902e-01</leafValues></_>
        <_>
          <internalNodes>
            0 -1 120 4.8986647278070450e-02</internalNodes>
          <leafValues>
            -2.3257447779178619e-01 8.1858623027801514e-01</leafValues></_>
        <_>
          <internalNodes>
            0 -1 18 -4.3092980049550533e-03</internalNodes>
          <leafValues>
            5.7126259803771973e-01 -2.7663573622703552e-01</leafValues></_>
        <_>
          <internalNodes>
            0 -1 33 1.5987930237315595e-04</internalNodes>
          <leafValues>
            2.5975939631462097e-01 -6.1902689933776855e-01</leafValues></_></weakClassifiers></_>
    <!-- stage 12 -->
    <_>
      <maxWeakCount>8</maxWeakCount>
      <stageThreshold>-4.4591698050498962e-01</stageThreshold>
      <weakClassifiers>
        <_>
          <internalNodes>
            0 -1 66 2.1889664232730865e-02</internalNodes>
          <leafValues>
            -3.2061067223548889e-01 5.2054792642593384e-01</leafValues></_>
        <_>
          <internalNodes>
            0 -1 32 -8.9032471179962158e-02</internalNodes>
          <leafValues>
            7.1427899599075317e-01 -2.0590227842330933e-01</leafValues></_>
        <_>
          <internalNodes>
            0 -1 123 2.9566016746684909e-04</internalNodes>
          <leafValues>
            2.3012003302574158e-01 -8.0312985181808472e-01</leafValues></_>
        <_>
          <internalNodes>
            0 -1 0 1.9459777104202658e-04</internalNodes>
          <leafValues>
            2.3767559230327606e-01 -7.6290440559387207e-01</leafValues></_>
        <_>
          <internalNodes>
            0 -1 73 -4.9861557781696320e-03</internalNodes>
          <leafValues>
            8.0705291032791138e-01 -2.5652387738227844e-01</leafValues></_>
        <_>
          <internalNodes>
            0 -1 48 -2.4037983268499374e-02</internalNodes>
          <leafValues>
            9.0892654657363892e-01 -1.8979151546955109e-01</leafValues></_>
        <_>
          <internalNodes>
            0 -1 138 -3.0531318770954385e-05</internalNodes>
          <leafValues>
            4.8804059624671936e-01 -2.8958642482757568e-01</leafValues></_>
        <_>
          <internalNodes>
            0 -1 136 -2.7862992283189669e-05</internalNodes>
          <leafValues>
            4.8428899049758911e-01 -3.1585621833801270e-01</leafValues></_></weakClassifiers></_>
    <!-- stage 13 -->
    <_>
      <maxWeakCount>9</maxWeakCount>
      <stageThreshold>-7.1683281660079956e-01</stageThreshold>
      <weakClassifiers>
        <_>
          <internalNodes>
            0 -1 55 1.9540295761544257e-04</internalNodes>
          <leafValues>
            2.0261438190937042e-01 -6.8627452850341797e-01</leafValues></_>
        <_>
          <internalNodes>
            0 -1 72 1.0710206115618348e-03</internalNodes>
          <leafValues>
            -3.8071307539939880e-01 4.2925393581390381e-01</leafValues></_>
        <_>
          <internalNodes>
            0 -1 9 4.1118262743111700e-05</internalNodes>
          <leafValues>
            2.4319520592689514e-01 -5.6752002239227295e-01</leafValues></_>
        <_>
          <internalNodes>
            0 -1 154 2.2758226841688156e-03</internalNodes>
          <leafValues>
            2.3510630428791046e-01 -6.2581449747085571e-01</leafValues></_>
        <_>
          <internalNodes>
            0 -1 153 -1.5065065235830843e-04</internalNodes>
          <leafValues>
            -9.4184219837188721e-01 1.4799407124519348e-01</leafValues></_>
        <_>
          <internalNodes>
            0 -1 47 7.3545286431908607e-04</internalNodes>
          <leafValues>
            -2.9775115847587585e-01 5.9488832950592041e-01</leafValues></_>
        <_>
          <internalNodes>
            0 -1 26 4.4888835400342941e-03</internalNodes>
          <leafValues>
            -2.1656320989131927e-01 6.9298493862152100e-01</leafValues></_>
        <_>
          <internalNodes>
            0 -1 151 9.1990907094441354e-05</internalNodes>
          <leafValues>
            -3.0981305241584778e-01 4.4373440742492676e-01</leafValues></_>
        <_>
          <internalNodes>
            0 -1 87 -2.4352367036044598e-03</internalNodes>
          <leafValues>
            6.5856373310089111e-01 -2.6198038458824158e-01</leafValues></_></weakClassifiers></_>
    <!-- stage 14 -->
    <_>
      <maxWeakCount>10</maxWeakCount>
      <stageThreshold>-7.9423576593399048e-01</stageThreshold>
      <weakClassifiers>
        <_>
          <internalNodes>
            0 -1 37 4.0150964632630348e-03</internalNodes>
          <leafValues>
            -2.5000000000000000e-01 6.5384614467620850e-01</leafValues></_>
        <_>
          <internalNodes>
            0 -1 52 9.8638935014605522e-04</internalNodes>
          <leafValues>
            -3.6479100584983826e-01 3.8647270202636719e-01</leafValues></_>
        <_>
          <internalNodes>
            0 -1 142 1.0248892067465931e-04</internalNodes>
          <leafValues>
            -3.8110393285751343e-01 4.0013030171394348e-01</leafValues></_>
        <_>
          <internalNodes>
            0 -1 64 1.3203278649598360e-03</internalNodes>
          <leafValues>
            -3.1492474675178528e-01 5.1962822675704956e-01</leafValues></_>
        <_>
          <internalNodes>
            0 -1 105 -1.0008126992033795e-04</internalNodes>
          <leafValues>
            -7.1978783607482910e-01 2.4821943044662476e-01</leafValues></_>
        <_>
          <internalNodes>
            0 -1 99 -4.1312765097245574e-04</internalNodes>
          <leafValues>
            4.5664644241333008e-01 -4.7099617123603821e-01</leafValues></_>
        <_>
          <internalNodes>
            0 -1 143 -8.2937869592569768e-05</internalNodes>
          <leafValues>
            -9.1444325447082520e-01 2.3755893111228943e-01</leafValues></_>
        <_>
          <internalNodes>
            0 -1 93 5.7212433603126556e-05</internalNodes>
          <leafValues>
            1.8479453027248383e-01 -7.1876406669616699e-01</leafValues></_>
        <_>
          <internalNodes>
            0 -1 122 2.2448776289820671e-03</internalNodes>
          <leafValues>
            -3.8136130571365356e-01 4.5814517140388489e-01</leafValues></_>
        <_>
          <internalNodes>
            0 -1 16 7.6048119808547199e-05</internalNodes>
          <leafValues>
            2.2847010195255280e-01 -7.0591616630554199e-01</leafValues></_></weakClassifiers></_>
    <!-- stage 15 -->
    <_>
      <maxWeakCount>9</maxWeakCount>
      <stageThreshold>-8.5710889101028442e-01</stageThreshold>
      <weakClassifiers>
        <_>
          <internalNodes>
            0 -1 13 -3.7466422654688358e-03</internalNodes>
          <leafValues>
            4.8101267218589783e-01 -3.3599999547004700e-01</leafValues></_>
        <_>
          <internalNodes>
            0 -1 75 9.7238682210445404e-03</internalNodes>
          <leafValues>
            -1.5043213963508606e-01 8.1346487998962402e-01</leafValues></_>
        <_>
          <internalNodes>
            0 -1 107 4.4885347597301006e-03</internalNodes>
          <leafValues>
            -3.1731027364730835e-01 4.6706545352935791e-01</leafValues></_>
        <_>
          <internalNodes>
            0 -1 97 -5.4576750844717026e-02</internalNodes>
          <leafValues>
            3.8910925388336182e-01 -4.2715582251548767e-01</leafValues></_>
        <_>
          <internalNodes>
            0 -1 88 8.3000902086496353e-03</internalNodes>
          <leafValues>
            -3.9768925309181213e-01 4.3162208795547485e-01</leafValues></_>
        <_>
          <internalNodes>
            0 -1 90 5.0321323797106743e-03</internalNodes>
          <leafValues>
            -2.3892988264560699e-01 5.9097820520401001e-01</leafValues></_>
        <_>
          <internalNodes>
            0 -1 45 5.5368160828948021e-03</internalNodes>
          <leafValues>
            -2.4416233599185944e-01 7.4255830049514771e-01</leafValues></_>
        <_>
          <internalNodes>
            0 -1 132 8.2925900642294437e-05</internalNodes>
          <leafValues>
            2.4279280006885529e-01 -7.8258687257766724e-01</leafValues></_>
        <_>
          <internalNodes>
            0 -1 70 -3.0951538064982742e-05</internalNodes>
          <leafValues>
            3.9083370566368103e-01 -3.8083153963088989e-01</leafValues></_></weakClassifiers></_>
    <!-- stage 16 -->
    <_>
      <maxWeakCount>11</maxWeakCount>
      <stageThreshold>-8.9232277870178223e-01</stageThreshold>
      <weakClassifiers>
        <_>
          <internalNodes>
            0 -1 56 2.2763800807297230e-03</internalNodes>
          <leafValues>
            -3.3047211170196533e-01 3.9428570866584778e-01</leafValues></_>
        <_>
          <internalNodes>
            0 -1 0 -1.9471443374641240e-04</internalNodes>
          <leafValues>
            -7.2276246547698975e-01 2.0702260732650757e-01</leafValues></_>
        <_>
          <internalNodes>
            0 -1 106 -1.6842641634866595e-03</internalNodes>
          <leafValues>
            7.3501694202423096e-01 -2.0946261286735535e-01</leafValues></_>
        <_>
          <internalNodes>
            0 -1 133 4.5582083985209465e-03</internalNodes>
          <leafValues>
            -2.7897489070892334e-01 5.7460612058639526e-01</leafValues></_>
        <_>
          <internalNodes>
            0 -1 34 -1.6056858294177800e-04</internalNodes>
          <leafValues>
            -7.4834543466567993e-01 2.3650202155113220e-01</leafValues></_>
        <_>
          <internalNodes>
            0 -1 140 7.2205316973850131e-04</internalNodes>
          <leafValues>
            -3.5159778594970703e-01 4.1492113471031189e-01</leafValues></_>
        <_>
          <internalNodes>
            0 -1 89 -2.7615446597337723e-03</internalNodes>
          <leafValues>
            4.9396577477455139e-01 -2.7884480357170105e-01</leafValues></_>
        <_>
          <internalNodes>
            0 -1 100 -1.4971846248954535e-03</internalNodes>
          <leafValues>
            7.2788131237030029e-01 -1.9943459331989288e-01</leafValues></_>
        <_>
          <internalNodes>
            0 -1 116 2.3437834170181304e-04</internalNodes>
          <leafValues>
            -3.2999402284622192e-01 4.4036081433296204e-01</leafValues></_>
        <_>
          <internalNodes>
            0 -1 74 -2.7152238180860877e-04</internalNodes>
          <leafValues>
            4.2953181266784668e-01 -3.5398507118225098e-01</leafValues></_>
        <_>
          <internalNodes>
            0 -1 102 -8.8796601630747318e-04</internalNodes>
          <leafValues>
            5.0171661376953125e-01 -3.4809008240699768e-01</leafValues></_></weakClassifiers></_>
    <!-- stage 17 -->
    <_>
      <maxWeakCount>8</maxWeakCount>
      <stageThreshold>-6.5149909257888794e-01</stageThreshold>
      <weakClassifiers>
        <_>
          <internalNodes>
            0 -1 21 2.6839817292056978e-04</internalNodes>
          <leafValues>
            1.7647059261798859e-01 -7.6470589637756348e-01</leafValues></_>
        <_>
          <internalNodes>
            0 -1 141 5.8124260976910591e-03</internalNodes>
          <leafValues>
            -2.6022568345069885e-01 5.6245386600494385e-01</leafValues></_>
        <_>
          <internalNodes>
            0 -1 139 -4.3147332035005093e-03</internalNodes>
          <leafValues>
            5.9324824810028076e-01 -2.2788813710212708e-01</leafValues></_>
        <_>
          <internalNodes>
            0 -1 30 9.7255187574774027e-04</internalNodes>
          <leafValues>
            2.9627853631973267e-01 -5.4338687658309937e-01</leafValues></_>
        <_>
          <internalNodes>
            0 -1 14 -7.8382791252806783e-04</internalNodes>
          <leafValues>
            -7.1752399206161499e-01 1.7646555602550507e-01</leafValues></_>
        <_>
          <internalNodes>
            0 -1 117 1.9475819499348290e-05</internalNodes>
          <leafValues>
            -3.4579601883888245e-01 3.4960138797760010e-01</leafValues></_>
        <_>
          <internalNodes>
            0 -1 62 -8.6708867456763983e-05</internalNodes>
          <leafValues>
            3.5406431555747986e-01 -3.9042118191719055e-01</leafValues></_>
        <_>
          <internalNodes>
            0 -1 71 -1.3157063222024590e-04</internalNodes>
          <leafValues>
            -7.5325113534927368e-01 2.5100794434547424e-01</leafValues></_></weakClassifiers></_>
    <!-- stage 18 -->
    <_>
      <maxWeakCount>7</maxWeakCount>
      <stageThreshold>-4.8445522785186768e-01</stageThreshold>
      <weakClassifiers>
        <_>
          <internalNodes>
            0 -1 63 8.0011766403913498e-03</internalNodes>
          <leafValues>
            -2.9770991206169128e-01 4.7945204377174377e-01</leafValues></_>
        <_>
          <internalNodes>
            0 -1 91 -2.0404000679263845e-05</internalNodes>
          <leafValues>
            3.8724818825721741e-01 -3.4285914897918701e-01</leafValues></_>
        <_>
          <internalNodes>
            0 -1 31 2.4481088621541858e-04</internalNodes>
          <leafValues>
            1.7470332980155945e-01 -7.5113618373870850e-01</leafValues></_>
        <_>
          <internalNodes>
            0 -1 95 1.4174271200317889e-04</internalNodes>
          <leafValues>
            -3.2210972905158997e-01 4.6932017803192139e-01</leafValues></_>
        <_>
          <internalNodes>
            0 -1 78 -5.0938043743371964e-02</internalNodes>
          <leafValues>
            5.8965110778808594e-01 -2.6868021488189697e-01</leafValues></_>
        <_>
          <internalNodes>
            0 -1 112 1.3267166912555695e-02</internalNodes>
          <leafValues>
            -4.6627146005630493e-01 4.2031759023666382e-01</leafValues></_>
        <_>
          <internalNodes>
            0 -1 82 -6.0906677390448749e-05</internalNodes>
          <leafValues>
            3.8483431935310364e-01 -4.1555711627006531e-01</leafValues></_></weakClassifiers></_>
    <!-- stage 19 -->
    <_>
      <maxWeakCount>9</maxWeakCount>
      <stageThreshold>-6.5775769948959351e-01</stageThreshold>
      <weakClassifiers>
        <_>
          <internalNodes>
            0 -1 145 -5.8587197214365005e-02</internalNodes>
          <leafValues>
            7.8666669130325317e-01 -2.0120120048522949e-01</leafValues></_>
        <_>
          <internalNodes>
            0 -1 111 -4.6846405602991581e-03</internalNodes>
          <leafValues>
            3.7001660466194153e-01 -3.3478888869285583e-01</leafValues></_>
        <_>
          <internalNodes>
            0 -1 42 -2.0303155906731263e-05</internalNodes>
          <leafValues>
            3.8248425722122192e-01 -3.2438516616821289e-01</leafValues></_>
        <_>
          <internalNodes>
            0 -1 152 2.7312582824379206e-04</internalNodes>
          <leafValues>
            2.7227839827537537e-01 -5.2449154853820801e-01</leafValues></_>
        <_>
          <internalNodes>
            0 -1 146 -5.3386691433843225e-05</internalNodes>
          <leafValues>
            5.5254137516021729e-01 -2.5130161643028259e-01</leafValues></_>
        <_>
          <internalNodes>
            0 -1 86 -2.4140457389876246e-04</internalNodes>
          <leafValues>
            3.5284650325775146e-01 -4.0403386950492859e-01</leafValues></_>
        <_>
          <internalNodes>
            0 -1 150 3.8912307354621589e-04</internalNodes>
          <leafValues>
            2.1644635498523712e-01 -7.1072047948837280e-01</leafValues></_>
        <_>
          <internalNodes>
            0 -1 109 -5.8461283333599567e-04</internalNodes>
          <leafValues>
            4.5925796031951904e-01 -2.9467239975929260e-01</leafValues></_>
        <_>
          <internalNodes>
            0 -1 127 3.1554361339658499e-04</internalNodes>
          <leafValues>
            2.0982392132282257e-01 -7.9483515024185181e-01</leafValues></_></weakClassifiers></_></stages>
  <features>
    <_>
      <rects>
        <_>
          0 0 1 4 -1.</_>
        <_>
          0 1 1 2 2.</_></rects>
      <tilted>0</tilted></_>
    <_>
      <rects>
        <_>
          0 0 3 3 -1.</_>
        <_>
          1 0 1 3 3.</_></rects>
      <tilted>0</tilted></_>
    <_>
      <rects>
        <_>
          0 0 2 10 -1.</_>
        <_>
          0 0 1 5 2.</_>
        <_>
          1 5 1 5 2.</_></rects>
      <tilted>0</tilted></_>
    <_>
      <rects>
        <_>
          0 0 6 1 -1.</_>
        <_>
          2 0 2 1 3.</_></rects>
      <tilted>0</tilted></_>
    <_>
      <rects>
        <_>
          0 0 8 1 -1.</_>
        <_>
          2 0 4 1 2.</_></rects>
      <tilted>0</tilted></_>
    <_>
      <rects>
        <_>
          0 1 3 2 -1.</_>
        <_>
          1 1 1 2 3.</_></rects>
      <tilted>0</tilted></_>
    <_>
      <rects>
        <_>
          0 1 47 26 -1.</_>
        <_>
          0 14 47 13 2.</_></rects>
      <tilted>0</tilted></_>
    <_>
      <rects>
        <_>
          0 2 40 3 -1.</_>
        <_>
          0 3 40 1 3.</_></rects>
      <tilted>0</tilted></_>
    <_>
      <rects>
        <_>
          0 5 2 8 -1.</_>
        <_>
          0 5 1 4 2.</_>
        <_>
          1 9 1 4 2.</_></rects>
      <tilted>0</tilted></_>
    <_>
      <rects>
        <_>
          0 5 2 9 -1.</_>
        <_>
          1 5 1 9 2.</_></rects>
      <tilted>0</tilted></_>
    <_>
      <rects>
        <_>
          0 6 48 21 -1.</_>
        <_>
          16 6 16 21 3.</_></rects>
      <tilted>0</tilted></_>
    <_>
      <rects>
        <_>
          0 11 24 16 -1.</_>
        <_>
          12 11 12 16 2.</_></rects>
      <tilted>0</tilted></_>
    <_>
      <rects>
        <_>
          0 12 18 2 -1.</_>
        <_>
          6 12 6 2 3.</_></rects>
      <tilted>0</tilted></_>
    <_>
      <rects>
        <_>
          0 14 10 5 -1.</_>
        <_>
          5 14 5 5 2.</_></rects>
      <tilted>0</tilted></_>
    <_>
      <rects>
        <_>
          0 16 1 4 -1.</_>
        <_>
          0 18 1 2 2.</_></rects>
      <tilted>0</tilted></_>
    <_>
      <rects>
        <_>
          0 20 45 3 -1.</_>
        <_>
          0 21 45 1 3.</_></rects>
      <tilted>0</tilted></_>
    <_>
      <rects>
        <_>
          0 24 2 3 -1.</_>
        <_>
          1 24 1 3 2.</_></rects>
      <tilted>0</tilted></_>
    <_>
      <rects>
        <_>
          0 26 44 1 -1.</_>
        <_>
          11 26 22 1 2.</_></rects>
      <tilted>0</tilted></_>
    <_>
      <rects>
        <_>
          1 0 12 18 -1.</_>
        <_>
          4 0 6 18 2.</_></rects>
      <tilted>0</tilted></_>
    <_>
      <rects>
        <_>
          1 1 4 2 -1.</_>
        <_>
          2 1 2 2 2.</_></rects>
      <tilted>0</tilted></_>
    <_>
      <rects>
        <_>
          1 1 3 3 -1.</_>
        <_>
          2 1 1 3 3.</_></rects>
      <tilted>0</tilted></_>
    <_>
      <rects>
        <_>
          1 1 6 1 -1.</_>
        <_>
          3 1 2 1 3.</_></rects>
      <tilted>0</tilted></_>
    <_>
      <rects>
        <_>
          1 4 1 2 -1.</_>
        <_>
          1 5 1 1 2.</_></rects>
      <tilted>0</tilted></_>
    <_>
      <rects>
        <_>
          1 10 24 9 -1.</_>
        <_>
          9 13 8 3 9.</_></rects>
      <tilted>0</tilted></_>
    <_>
      <rects>
        <_>
          1 14 6 3 -1.</_>
        <_>
          4 14 3 3 2.</_></rects>
      <tilted>0</tilted></_>
    <_>
      <rects>
        <_>
          1 15 2 3 -1.</_>
        <_>
          2 15 1 3 2.</_></rects>
      <tilted>0</tilted></_>
    <_>
      <rects>
        <_>
          1 15 35 3 -1.</_>
        <_>
          1 16 35 1 3.</_></rects>
      <tilted>0</tilted></_>
    <_>
      <rects>
        <_>
          1 16 2 1 -1.</_>
        <_>
          2 16 1 1 2.</_></rects>
      <tilted>0</tilted></_>
    <_>
      <rects>
        <_>
          1 26 2 1 -1.</_>
        <_>
          2 26 1 1 2.</_></rects>
      <tilted>0</tilted></_>
    <_>
      <rects>
        <_>
          2 0 3 4 -1.</_>
        <_>
          3 0 1 4 3.</_></rects>
      <tilted>0</tilted></_>
    <_>
      <rects>
        <_>
          2 0 16 1 -1.</_>
        <_>
          10 0 8 1 2.</_></rects>
      <tilted>0</tilted></_>
    <_>
      <rects>
        <_>
          2 4 1 2 -1.</_>
        <_>
          2 4 1 1 2.</_></rects>
      <tilted>1</tilted></_>
    <_>
      <rects>
        <_>
          2 9 30 18 -1.</_>
        <_>
          17 9 15 18 2.</_></rects>
      <tilted>0</tilted></_>
    <_>
      <rects>
        <_>
          2 21 3 6 -1.</_>
        <_>
          3 21 1 6 3.</_></rects>
      <tilted>0</tilted></_>
    <_>
      <rects>
        <_>
          4 0 4 1 -1.</_>
        <_>
          6 0 2 1 2.</_></rects>
      <tilted>0</tilted></_>
    <_>
      <rects>
        <_>
          4 0 10 1 -1.</_>
        <_>
          9 0 5 1 2.</_></rects>
      <tilted>0</tilted></_>
    <_>
      <rects>
        <_>
          4 2 4 2 -1.</_>
        <_>
          6 2 2 2 2.</_></rects>
      <tilted>0</tilted></_>
    <_>
      <rects>
        <_>
          4 2 31 2 -1.</_>
        <_>
          4 3 31 1 2.</_></rects>
      <tilted>0</tilted></_>
    <_>
      <rects>
        <_>
          4 3 1 4 -1.</_>
        <_>
          4 3 1 2 2.</_></rects>
      <tilted>1</tilted></_>
    <_>
      <rects>
        <_>
          4 7 44 6 -1.</_>
        <_>
          26 7 22 6 2.</_></rects>
      <tilted>0</tilted></_>
    <_>
      <rects>
        <_>
          4 9 44 4 -1.</_>
        <_>
          26 9 22 4 2.</_></rects>
      <tilted>0</tilted></_>
    <_>
      <rects>
        <_>
          4 14 19 4 -1.</_>
        <_>
          4 15 19 2 2.</_></rects>
      <tilted>0</tilted></_>
    <_>
      <rects>
        <_>
          4 17 1 2 -1.</_>
        <_>
          4 18 1 1 2.</_></rects>
      <tilted>0</tilted></_>
    <_>
      <rects>
        <_>
          5 1 30 4 -1.</_>
        <_>
          5 2 30 2 2.</_></rects>
      <tilted>0</tilted></_>
    <_>
      <rects>
        <_>
          5 2 26 13 -1.</_>
        <_>
          18 2 13 13 2.</_></rects>
      <tilted>0</tilted></_>
    <_>
      <rects>
        <_>
          5 14 16 2 -1.</_>
        <_>
          9 14 8 2 2.</_></rects>
      <tilted>0</tilted></_>
    <_>
      <rects>
        <_>
          5 20 25 3 -1.</_>
        <_>
          5 21 25 1 3.</_></rects>
      <tilted>0</tilted></_>
    <_>
      <rects>
        <_>
          6 7 2 20 -1.</_>
        <_>
          6 7 1 10 2.</_>
        <_>
          7 17 1 10 2.</_></rects>
      <tilted>0</tilted></_>
    <_>
      <rects>
        <_>
          7 0 37 4 -1.</_>
        <_>
          7 1 37 2 2.</_></rects>
      <tilted>0</tilted></_>
    <_>
      <rects>
        <_>
          7 1 2 2 -1.</_>
        <_>
          7 1 2 1 2.</_></rects>
      <tilted>1</tilted></_>
    <_>
      <rects>
        <_>
          7 4 17 15 -1.</_>
        <_>
          7 9 17 5 3.</_></rects>
      <tilted>0</tilted></_>
    <_>
      <rects>
        <_>
          7 5 12 12 -1.</_>
        <_>
          7 9 12 4 3.</_></rects>
      <tilted>0</tilted></_>
    <_>
      <rects>
        <_>
          7 6 8 2 -1.</_>
        <_>
          7 6 8 1 2.</_></rects>
      <tilted>1</tilted></_>
    <_>
      <rects>
        <_>
          8 1 36 6 -1.</_>
        <_>
          8 4 36 3 2.</_></rects>
      <tilted>0</tilted></_>
    <_>
      <rects>
        <_>
          8 12 40 2 -1.</_>
        <_>
          28 12 20 2 2.</_></rects>
      <tilted>0</tilted></_>
    <_>
      <rects>
        <_>
          9 0 6 1 -1.</_>
        <_>
          11 0 2 1 3.</_></rects>
      <tilted>0</tilted></_>
    <_>
      <rects>
        <_>
          9 0 10 1 -1.</_>
        <_>
          9 0 5 1 2.</_></rects>
      <tilted>1</tilted></_>
    <_>
      <rects>
        <_>
          10 0 28 4 -1.</_>
        <_>
          10 1 28 2 2.</_></rects>
      <tilted>0</tilted></_>
    <_>
      <rects>
        <_>
          10 2 20 12 -1.</_>
        <_>
          10 8 20 6 2.</_></rects>
      <tilted>0</tilted></_>
    <_>
      <rects>
        <_>
          10 8 32 19 -1.</_>
        <_>
          18 8 16 19 2.</_></rects>
      <tilted>0</tilted></_>
    <_>
      <rects>
        <_>
          10 10 22 4 -1.</_>
        <_>
          10 10 11 2 2.</_>
        <_>
          21 12 11 2 2.</_></rects>
      <tilted>0</tilted></_>
    <_>
      <rects>
        <_>
          10 10 12 3 -1.</_>
        <_>
          10 11 12 1 3.</_></rects>
      <tilted>0</tilted></_>
    <_>
      <rects>
        <_>
          10 25 4 2 -1.</_>
        <_>
          12 25 2 2 2.</_></rects>
      <tilted>0</tilted></_>
    <_>
      <rects>
        <_>
          11 2 12 12 -1.</_>
        <_>
          11 2 6 6 2.</_>
        <_>
          17 8 6 6 2.</_></rects>
      <tilted>0</tilted></_>
    <_>
      <rects>
        <_>
          11 4 26 2 -1.</_>
        <_>
          11 4 13 1 2.</_>
        <_>
          24 5 13 1 2.</_></rects>
      <tilted>0</tilted></_>
    <_>
      <rects>
        <_>
          11 11 32 8 -1.</_>
        <_>
          19 11 16 8 2.</_></rects>
      <tilted>0</tilted></_>
    <_>
      <rects>
        <_>
          11 12 32 8 -1.</_>
        <_>
          19 12 16 8 2.</_></rects>
      <tilted>0</tilted></_>
    <_>
      <rects>
        <_>
          12 0 24 6 -1.</_>
        <_>
          12 2 24 2 3.</_></rects>
      <tilted>0</tilted></_>
    <_>
      <rects>
        <_>
          12 6 3 12 -1.</_>
        <_>
          8 10 3 4 3.</_></rects>
      <tilted>1</tilted></_>
    <_>
      <rects>
        <_>
          12 10 19 6 -1.</_>
        <_>
          12 12 19 2 3.</_></rects>
      <tilted>0</tilted></_>
    <_>
      <rects>
        <_>
          12 21 2 1 -1.</_>
        <_>
          12 21 1 1 2.</_></rects>
      <tilted>1</tilted></_>
    <_>
      <rects>
        <_>
          12 26 4 1 -1.</_>
        <_>
          13 26 2 1 2.</_></rects>
      <tilted>0</tilted></_>
    <_>
      <rects>
        <_>
          13 1 4 16 -1.</_>
        <_>
          13 1 2 8 2.</_>
        <_>
          15 9 2 8 2.</_></rects>
      <tilted>0</tilted></_>
    <_>
      <rects>
        <_>
          13 5 19 3 -1.</_>
        <_>
          13 6 19 1 3.</_></rects>
      <tilted>0</tilted></_>
    <_>
      <rects>
        <_>
          13 8 1 6 -1.</_>
        <_>
          13 10 1 2 3.</_></rects>
      <tilted>0</tilted></_>
    <_>
      <rects>
        <_>
          13 14 5 8 -1.</_>
        <_>
          11 16 5 4 2.</_></rects>
      <tilted>1</tilted></_>
    <_>
      <rects>
        <_>
          13 26 3 1 -1.</_>
        <_>
          14 26 1 1 3.</_></rects>
      <tilted>0</tilted></_>
    <_>
      <rects>
        <_>
          14 2 17 2 -1.</_>
        <_>
          14 3 17 1 2.</_></rects>
      <tilted>0</tilted></_>
    <_>
      <rects>
        <_>
          15 0 10 14 -1.</_>
        <_>
          15 7 10 7 2.</_></rects>
      <tilted>0</tilted></_>
    <_>
      <rects>
        <_>
          15 0 12 4 -1.</_>
        <_>
          15 2 12 2 2.</_></rects>
      <tilted>0</tilted></_>
    <_>
      <rects>
        <_>
          15 0 20 4 -1.</_>
        <_>
          15 1 20 2 2.</_></rects>
      <tilted>0</tilted></_>
    <_>
      <rects>
        <_>
          15 3 25 12 -1.</_>
        <_>
          15 7 25 4 3.</_></rects>
      <tilted>0</tilted></_>
    <_>
      <rects>
        <_>
          15 8 24 1 -1.</_>
        <_>
          23 8 8 1 3.</_></rects>
      <tilted>0</tilted></_>
    <_>
      <rects>
        <_>
          15 9 22 2 -1.</_>
        <_>
          15 9 11 1 2.</_>
        <_>
          26 10 11 1 2.</_></rects>
      <tilted>0</tilted></_>
    <_>
      <rects>
        <_>
          15 17 8 10 -1.</_>
        <_>
          15 17 4 5 2.</_>
        <_>
          19 22 4 5 2.</_></rects>
      <tilted>0</tilted></_>
    <_>
      <rects>
        <_>
          15 25 3 2 -1.</_>
        <_>
          16 25 1 2 3.</_></rects>
      <tilted>0</tilted></_>
    <_>
      <rects>
        <_>
          16 6 12 1 -1.</_>
        <_>
          20 6 4 1 3.</_></rects>
      <tilted>0</tilted></_>
    <_>
      <rects>
        <_>
          17 5 10 3 -1.</_>
        <_>
          16 6 10 1 3.</_></rects>
      <tilted>1</tilted></_>
    <_>
      <rects>
        <_>
          17 17 28 10 -1.</_>
        <_>
          17 17 14 5 2.</_>
        <_>
          31 22 14 5 2.</_></rects>
      <tilted>0</tilted></_>
    <_>
      <rects>
        <_>
          18 10 2 9 -1.</_>
        <_>
          18 13 2 3 3.</_></rects>
      <tilted>0</tilted></_>
    <_>
      <rects>
        <_>
          18 16 27 3 -1.</_>
        <_>
          27 16 9 3 3.</_></rects>
      <tilted>0</tilted></_>
    <_>
      <rects>
        <_>
          18 18 1 2 -1.</_>
        <_>
          18 19 1 1 2.</_></rects>
      <tilted>0</tilted></_>
    <_>
      <rects>
        <_>
          18 25 6 1 -1.</_>
        <_>
          20 25 2 1 3.</_></rects>
      <tilted>0</tilted></_>
    <_>
      <rects>
        <_>
          19 1 3 1 -1.</_>
        <_>
          20 1 1 1 3.</_></rects>
      <tilted>0</tilted></_>
    <_>
      <rects>
        <_>
          19 2 13 3 -1.</_>
        <_>
          19 3 13 1 3.</_></rects>
      <tilted>0</tilted></_>
    <_>
      <rects>
        <_>
          19 24 2 1 -1.</_>
        <_>
          19 24 1 1 2.</_></rects>
      <tilted>1</tilted></_>
    <_>
      <rects>
        <_>
          20 26 28 1 -1.</_>
        <_>
          34 26 14 1 2.</_></rects>
      <tilted>0</tilted></_>
    <_>
      <rects>
        <_>
          21 1 22 14 -1.</_>
        <_>
          21 8 22 7 2.</_></rects>
      <tilted>0</tilted></_>
    <_>
      <rects>
        <_>
          21 2 14 4 -1.</_>
        <_>
          21 4 14 2 2.</_></rects>
      <tilted>0</tilted></_>
    <_>
      <rects>
        <_>
          22 6 18 4 -1.</_>
        <_>
          28 6 6 4 3.</_></rects>
      <tilted>0</tilted></_>
    <_>
      <rects>
        <_>
          22 15 6 3 -1.</_>
        <_>
          22 16 6 1 3.</_></rects>
      <tilted>0</tilted></_>
    <_>
      <rects>
        <_>
          23 5 6 6 -1.</_>
        <_>
          23 8 6 3 2.</_></rects>
      <tilted>0</tilted></_>
    <_>
      <rects>
        <_>
          23 6 18 1 -1.</_>
        <_>
          29 6 6 1 3.</_></rects>
      <tilted>0</tilted></_>
    <_>
      <rects>
        <_>
          23 24 11 2 -1.</_>
        <_>
          23 25 11 1 2.</_></rects>
      <tilted>0</tilted></_>
    <_>
      <rects>
        <_>
          23 26 24 1 -1.</_>
        <_>
          35 26 12 1 2.</_></rects>
      <tilted>0</tilted></_>
    <_>
      <rects>
        <_>
          24 0 2 3 -1.</_>
        <_>
          25 0 1 3 2.</_></rects>
      <tilted>0</tilted></_>
    <_>
      <rects>
        <_>
          24 0 5 2 -1.</_>
        <_>
          24 1 5 1 2.</_></rects>
      <tilted>0</tilted></_>
    <_>
      <rects>
        <_>
          24 1 4 8 -1.</_>
        <_>
          24 5 4 4 2.</_></rects>
      <tilted>0</tilted></_>
    <_>
      <rects>
        <_>
          25 0 22 1 -1.</_>
        <_>
          36 0 11 1 2.</_></rects>
      <tilted>0</tilted></_>
    <_>
      <rects>
        <_>
          25 13 6 3 -1.</_>
        <_>
          27 13 2 3 3.</_></rects>
      <tilted>0</tilted></_>
    <_>
      <rects>
        <_>
          25 24 9 3 -1.</_>
        <_>
          25 25 9 1 3.</_></rects>
      <tilted>0</tilted></_>
    <_>
      <rects>
        <_>
          26 0 21 9 -1.</_>
        <_>
          33 3 7 3 9.</_></rects>
      <tilted>0</tilted></_>
    <_>
      <rects>
        <_>
          26 0 8 20 -1.</_>
        <_>
          26 5 8 10 2.</_></rects>
      <tilted>0</tilted></_>
    <_>
      <rects>
        <_>
          26 5 20 22 -1.</_>
        <_>
          26 5 10 11 2.</_>
        <_>
          36 16 10 11 2.</_></rects>
      <tilted>0</tilted></_>
    <_>
      <rects>
        <_>
          26 6 4 2 -1.</_>
        <_>
          26 6 4 1 2.</_></rects>
      <tilted>1</tilted></_>
    <_>
      <rects>
        <_>
          26 18 9 6 -1.</_>
        <_>
          26 20 9 2 3.</_></rects>
      <tilted>0</tilted></_>
    <_>
      <rects>
        <_>
          26 23 3 3 -1.</_>
        <_>
          26 24 3 1 3.</_></rects>
      <tilted>0</tilted></_>
    <_>
      <rects>
        <_>
          27 1 2 5 -1.</_>
        <_>
          28 1 1 5 2.</_></rects>
      <tilted>0</tilted></_>
    <_>
      <rects>
        <_>
          27 23 2 3 -1.</_>
        <_>
          27 24 2 1 3.</_></rects>
      <tilted>0</tilted></_>
    <_>
      <rects>
        <_>
          28 0 20 4 -1.</_>
        <_>
          28 0 10 2 2.</_>
        <_>
          38 2 10 2 2.</_></rects>
      <tilted>0</tilted></_>
    <_>
      <rects>
        <_>
          28 2 18 20 -1.</_>
        <_>
          28 2 9 10 2.</_>
        <_>
          37 12 9 10 2.</_></rects>
      <tilted>0</tilted></_>
    <_>
      <rects>
        <_>
          28 14 9 2 -1.</_>
        <_>
          28 15 9 1 2.</_></rects>
      <tilted>0</tilted></_>
    <_>
      <rects>
        <_>
          29 13 18 6 -1.</_>
        <_>
          29 13 9 3 2.</_>
        <_>
          38 16 9 3 2.</_></rects>
      <tilted>0</tilted></_>
    <_>
      <rects>
        <_>
          31 0 8 1 -1.</_>
        <_>
          33 0 4 1 2.</_></rects>
      <tilted>0</tilted></_>
    <_>
      <rects>
        <_>
          31 1 11 8 -1.</_>
        <_>
          31 3 11 4 2.</_></rects>
      <tilted>0</tilted></_>
    <_>
      <rects>
        <_>
          32 0 10 16 -1.</_>
        <_>
          32 0 5 8 2.</_>
        <_>
          37 8 5 8 2.</_></rects>
      <tilted>0</tilted></_>
    <_>
      <rects>
        <_>
          32 18 2 6 -1.</_>
        <_>
          32 20 2 2 3.</_></rects>
      <tilted>0</tilted></_>
    <_>
      <rects>
        <_>
          32 22 3 3 -1.</_>
        <_>
          33 22 1 3 3.</_></rects>
      <tilted>0</tilted></_>
    <_>
      <rects>
        <_>
          32 23 3 3 -1.</_>
        <_>
          33 23 1 3 3.</_></rects>
      <tilted>0</tilted></_>
    <_>
      <rects>
        <_>
          33 26 3 1 -1.</_>
        <_>
          34 26 1 1 3.</_></rects>
      <tilted>0</tilted></_>
    <_>
      <rects>
        <_>
          34 9 1 2 -1.</_>
        <_>
          34 10 1 1 2.</_></rects>
      <tilted>0</tilted></_>
    <_>
      <rects>
        <_>
          36 0 10 1 -1.</_>
        <_>
          41 0 5 1 2.</_></rects>
      <tilted>0</tilted></_>
    <_>
      <rects>
        <_>
          36 1 3 1 -1.</_>
        <_>
          37 1 1 1 3.</_></rects>
      <tilted>0</tilted></_>
    <_>
      <rects>
        <_>
          36 18 4 4 -1.</_>
        <_>
          36 18 4 2 2.</_></rects>
      <tilted>1</tilted></_>
    <_>
      <rects>
        <_>
          36 19 10 7 -1.</_>
        <_>
          41 19 5 7 2.</_></rects>
      <tilted>0</tilted></_>
    <_>
      <rects>
        <_>
          36 25 8 2 -1.</_>
        <_>
          40 25 4 2 2.</_></rects>
      <tilted>0</tilted></_>
    <_>
      <rects>
        <_>
          37 16 2 2 -1.</_>
        <_>
          37 16 1 1 2.</_>
        <_>
          38 17 1 1 2.</_></rects>
      <tilted>0</tilted></_>
    <_>
      <rects>
        <_>
          37 25 3 2 -1.</_>
        <_>
          38 25 1 2 3.</_></rects>
      <tilted>0</tilted></_>
    <_>
      <rects>
        <_>
          38 3 1 4 -1.</_>
        <_>
          38 4 1 2 2.</_></rects>
      <tilted>0</tilted></_>
    <_>
      <rects>
        <_>
          38 15 10 7 -1.</_>
        <_>
          43 15 5 7 2.</_></rects>
      <tilted>0</tilted></_>
    <_>
      <rects>
        <_>
          39 19 6 4 -1.</_>
        <_>
          42 19 3 4 2.</_></rects>
      <tilted>0</tilted></_>
    <_>
      <rects>
        <_>
          41 15 6 8 -1.</_>
        <_>
          44 15 3 8 2.</_></rects>
      <tilted>0</tilted></_>
    <_>
      <rects>
        <_>
          41 25 5 2 -1.</_>
        <_>
          41 26 5 1 2.</_></rects>
      <tilted>0</tilted></_>
    <_>
      <rects>
        <_>
          41 26 2 1 -1.</_>
        <_>
          42 26 1 1 2.</_></rects>
      <tilted>0</tilted></_>
    <_>
      <rects>
        <_>
          42 0 6 1 -1.</_>
        <_>
          44 0 2 1 3.</_></rects>
      <tilted>0</tilted></_>
    <_>
      <rects>
        <_>
          42 0 6 20 -1.</_>
        <_>
          37 5 6 10 2.</_></rects>
      <tilted>1</tilted></_>
    <_>
      <rects>
        <_>
          42 5 1 2 -1.</_>
        <_>
          42 6 1 1 2.</_></rects>
      <tilted>0</tilted></_>
    <_>
      <rects>
        <_>
          42 12 3 12 -1.</_>
        <_>
          39 15 3 6 2.</_></rects>
      <tilted>1</tilted></_>
    <_>
      <rects>
        <_>
          42 26 6 1 -1.</_>
        <_>
          45 26 3 1 2.</_></rects>
      <tilted>0</tilted></_>
    <_>
      <rects>
        <_>
          43 0 2 2 -1.</_>
        <_>
          44 0 1 2 2.</_></rects>
      <tilted>0</tilted></_>
    <_>
      <rects>
        <_>
          43 9 4 2 -1.</_>
        <_>
          43 10 4 1 2.</_></rects>
      <tilted>0</tilted></_>
    <_>
      <rects>
        <_>
          43 19 4 1 -1.</_>
        <_>
          45 19 2 1 2.</_></rects>
      <tilted>0</tilted></_>
    <_>
      <rects>
        <_>
          45 0 3 10 -1.</_>
        <_>
          46 0 1 10 3.</_></rects>
      <tilted>0</tilted></_>
    <_>
      <rects>
        <_>
          45 2 3 1 -1.</_>
        <_>
          46 2 1 1 3.</_></rects>
      <tilted>0</tilted></_>
    <_>
      <rects>
        <_>
          47 13 1 14 -1.</_>
        <_>
          47 20 1 7 2.</_></rects>
      <tilted>0</tilted></_></features></cascade>
</opencv_storage>
