<?xml version="1.0"?>
<opencv_storage>
<stage7>
  <maxWeakCount>8</maxWeakCount>
  <stageThreshold>-7.7330160140991211e-01</stageThreshold>
  <weakClassifiers>
    <_>
      <internalNodes>
        0 -1 80035 -2.7429374313214794e-05</internalNodes>
      <leafValues>
        5.1162791252136230e-01 -4.0677964687347412e-01</leafValues></_>
    <_>
      <internalNodes>
        0 -1 42053 -3.6952130030840635e-03</internalNodes>
      <leafValues>
        6.1807060241699219e-01 -2.8264793753623962e-01</leafValues></_>
    <_>
      <internalNodes>
        0 -1 30986 -2.2200788371264935e-03</internalNodes>
      <leafValues>
        4.7549289464950562e-01 -3.7170124053955078e-01</leafValues></_>
    <_>
      <internalNodes>
        0 -1 198384 -3.3663637936115265e-02</internalNodes>
      <leafValues>
        -9.5058703422546387e-01 1.8753258883953094e-01</leafValues></_>
    <_>
      <internalNodes>
        0 -1 523975 -5.6137517094612122e-03</internalNodes>
      <leafValues>
        6.0472601652145386e-01 -3.3513018488883972e-01</leafValues></_>
    <_>
      <internalNodes>
        0 -1 612611 -1.1695899069309235e-02</internalNodes>
      <leafValues>
        7.1325141191482544e-01 -2.7225774526596069e-01</leafValues></_>
    <_>
      <internalNodes>
        0 -1 933434 -6.5943773370236158e-04</internalNodes>
      <leafValues>
        -6.4193207025527954e-01 3.4255397319793701e-01</leafValues></_>
    <_>
      <internalNodes>
        0 -1 1030348 -2.6191526558250189e-04</internalNodes>
      <leafValues>
        4.1239157319068909e-01 -5.0864911079406738e-01</leafValues></_></weakClassifiers></stage7>
</opencv_storage>
