<?xml version="1.0"?>
<opencv_storage>
<stage8>
  <maxWeakCount>9</maxWeakCount>
  <stageThreshold>-1.0196841955184937e+00</stageThreshold>
  <weakClassifiers>
    <_>
      <internalNodes>
        0 -1 632631 -9.8959123715758324e-04</internalNodes>
      <leafValues>
        5.1898735761642456e-01 -3.6000001430511475e-01</leafValues></_>
    <_>
      <internalNodes>
        0 -1 1009786 1.5388338943012059e-04</internalNodes>
      <leafValues>
        -3.2406765222549438e-01 4.5721802115440369e-01</leafValues></_>
    <_>
      <internalNodes>
        0 -1 642526 -1.9925371743738651e-03</internalNodes>
      <leafValues>
        5.4392838478088379e-01 -2.9676082730293274e-01</leafValues></_>
    <_>
      <internalNodes>
        0 -1 1011697 6.0790414863731712e-05</internalNodes>
      <leafValues>
        -4.2549720406532288e-01 3.9443320035934448e-01</leafValues></_>
    <_>
      <internalNodes>
        0 -1 78647 -7.7041011536493897e-05</internalNodes>
      <leafValues>
        4.5168021321296692e-01 -3.8606694340705872e-01</leafValues></_>
    <_>
      <internalNodes>
        0 -1 255172 -5.8479950530454516e-04</internalNodes>
      <leafValues>
        4.5446434617042542e-01 -4.0874758362770081e-01</leafValues></_>
    <_>
      <internalNodes>
        0 -1 428688 -5.1751002669334412e-02</internalNodes>
      <leafValues>
        4.5035180449485779e-01 -3.8042947649955750e-01</leafValues></_>
    <_>
      <internalNodes>
        0 -1 1102281 -5.4336986504495144e-03</internalNodes>
      <leafValues>
        5.7861518859863281e-01 -3.8632836937904358e-01</leafValues></_>
    <_>
      <internalNodes>
        0 -1 173524 -2.5768420891836286e-04</internalNodes>
      <leafValues>
        -6.2167495489120483e-01 2.7968537807464600e-01</leafValues></_></weakClassifiers></stage8>
</opencv_storage>
